-7.352367423118086887e-01
4.930519605647801229e-02
2.839292298329110231e-02
7.045551583428059095e-01
-6.506776865300760715e-01
-1.645357534228217289e-01
-3.289645108788185057e-01
-9.410557225129370096e-01
-7.133571904702715738e-01
-5.789752134959894603e-01
-7.141314989325762974e-02
-6.441684180333725473e-01
-6.902697771658493631e-01
-1.238125981107340984e-01
4.612484599697502102e-02
-9.167795595746973669e-01
4.099132454937643999e-01
8.282919290804846568e-02
-3.069257704886457772e-02
-4.257759795139935410e-01
-7.008043923052857671e-02
1.000000000000000000e+00
4.921541298794027131e-01
6.903051914155595714e-01
5.530753621329670411e-01
-7.160822308669270164e-01
-5.575531934740728390e-01
1.761914187215107841e-02
1.370247592303407980e-01
8.258780964973104766e-01
1.660395167007934769e-01
6.153753722326655851e-01
-9.405807006272155490e-01
7.447001596414593028e-02
-5.961954715799940852e-01
-1.904048389047824641e-01
8.086496884547499375e-01
-3.622577374988378840e-01
1.675074138902432341e-01
4.642661776498676063e-01
-5.230479064214259566e-01
-7.361235020226744030e-01
-8.269290320601796473e-01
-1.130075682296660389e-01
7.077459511365359335e-01
2.664980219612166357e-01
8.304188640566929624e-01
1.608761273408827464e-01
-8.307030831600084042e-01
-5.439103917311454151e-01
-1.964654140103684332e-01
8.218121716747260608e-03
9.014789774234142072e-01
4.614912401828862865e-01
7.483587938178991594e-01
-6.073143963016758295e-01
-9.414293736265242352e-01
7.516074112573286614e-01
-4.922545804527459490e-01
7.784688815962004238e-01
-5.846777567890566463e-01
-6.767648297427951709e-01
8.001739213002238005e-01
8.020564665284659611e-01
-2.718926710779011602e-01
8.553552469113889778e-01
-4.031323321867677500e-01
6.497270249235506112e-01
-5.797680075325036819e-01
-9.573559306192731544e-01
3.294839963201716126e-01
-1.000000000000000000e+00
3.861020265205702962e-02
8.694436052865324172e-01
4.777753852935145984e-01
-3.561555491080491409e-01
-7.414833069515269770e-01
2.609402134723387556e-01
-7.189137811585443183e-01
-3.943693451170154907e-01
-6.463763321677035156e-01
-4.870636268706356464e-01
4.230853969011341142e-01
3.025289493810205954e-01
-9.934183859754966983e-01
-1.000000000000000000e+00
-3.402571022102122145e-01
8.772784340408792403e-01
1.000000000000000000e+00
-2.291010156057538549e-01
-1.000000000000000000e+00
1.129072304097364365e-02
-1.000000000000000000e+00
-4.732296410183816082e-01
2.624120434355122766e-01
-2.160827231443111507e-01
-5.871974983803567305e-01
-5.187324859224606843e-01
-5.804608382287480550e-01
-6.344551288449647997e-01
-6.661055247811196178e-01
-8.784914323833631355e-01
3.190058936635055131e-01
-9.169689193595451648e-01
-1.000000000000000000e+00
-2.463262161536896588e-01
3.805358924297650436e-01
8.863381995093585486e-01
-9.123306664931810639e-01
-9.587997207970022640e-01
4.663596314558456912e-01
7.898436565882155369e-01
3.808263151318418138e-02
3.307402299454371974e-02
-1.845670450322294542e-01
-1.212273372845237840e-02
-8.292351956474240948e-01
6.215207694598976484e-01
2.317484599283379798e-01
-9.740647067227978795e-01
8.435591291572184236e-01
9.203821882095557516e-01
9.716961706054372261e-01
-4.114357833283545651e-01
3.822140076795041974e-01
-5.279997583945355011e-01
8.941785295767245012e-01
2.158214203549063126e-01
6.388393365145752512e-01
3.968663987579332808e-01
-8.958418275307380441e-01
1.450471730799286485e-01
-6.289205490459981451e-01
8.491797418179412027e-01
1.000000000000000000e+00
-1.627307939334001752e-01
3.230731629314569364e-01
4.112526948166160268e-01
-5.486922510092007155e-01
6.085412157879952488e-01
-7.699170686503795658e-01
-4.513932545585847000e-02
-3.579334616491888221e-01
4.049801200364141485e-01
-3.838280818879453160e-01
1.678786643589828542e-01
1.662772011564178642e-01
-8.960624953719557029e-01
-8.894197107594186136e-01
-2.866391075596563254e-01
-8.712997766805452571e-03
-6.559158298821182731e-01
-6.286342194820800922e-01
2.566889216642004312e-02
-4.029106223468830184e-01
9.732484488926629318e-01
5.860785264107136738e-01
-8.618928708430978469e-03
5.910026723579395735e-01
-1.698076148221636383e-01
-1.765996264817323302e-01
4.990652649087769233e-02
4.217868530148249223e-02
-9.339297035934964741e-01
5.656482110097834637e-01
-6.072850286547832876e-01
2.675421840882449831e-01
-8.307556788020681315e-01
-9.079430419947471798e-01
4.931215508027585459e-01
7.432394572614714479e-02
-2.410209464809404678e-01
-6.462201813541265660e-02
-4.330052921952640688e-01
-8.543386515921738145e-01
-5.635611368377465569e-01
-8.378577909250530809e-01
-6.316929693832280535e-01
-1.927155441695069249e-01
4.551203384344660874e-01
-2.014298230786402688e-01
6.700319891503327130e-02
-9.568462519263439825e-01
2.225711747838334531e-01
1.503321917288235610e-01
3.720663713497841529e-01
8.638138548554620544e-02
-8.940204251134786784e-01
8.228968759586742232e-01
-1.000000000000000000e+00
-8.029944388139539369e-01
5.120953924828065551e-01
-4.189220523176671596e-01
-6.744393713010951030e-01
-1.677884225036901933e-01
-4.642972246629631372e-01
8.428556072177391112e-01
9.994708467154028719e-01
-6.789660251814381153e-01
8.246652363433862876e-01
1.498966301699152792e-01
-1.947556561394903907e-01
1.000000000000000000e+00
4.687318812317898264e-01
-8.235439073755612682e-01
-4.842381770971649901e-01
-1.000000000000000000e+00
5.466605030303051116e-01
1.746462047110299010e-01
-8.076700622209059821e-01
-4.351002445672633723e-01
1.225264690308126569e-01
1.455530981493025622e-01
3.537051673550236641e-01
4.708403518495288820e-01
-9.607681650755858227e-01
7.836523935879000646e-01
9.947219932665515851e-02
-9.103398540906785241e-01
1.375692612492096512e-01
9.772381743808729038e-01
4.972164402191786570e-02
3.180934485568404635e-01
8.243389496085412604e-01
-9.209875391177311243e-01
-1.976816424621942181e-01
-9.842579778997043727e-01
9.897844505972919205e-01
7.353971012830633480e-01
1.251732887402887684e-01
-4.950973407992788067e-01
-3.782267950068185502e-01
-9.059375276782702935e-01
3.721623228775602366e-01
-9.081658411142763399e-01
-7.473438319333397528e-02
-1.615883079746718576e-01
1.000000000000000000e+00
8.030393321529178952e-01
-1.184798513611875631e-01
-1.000000000000000000e+00
1.125367279030230205e-01
8.209200641737232074e-01
4.130627655281744470e-01
1.031288605406783937e-01
-5.932659209775742459e-01
7.302174354827182245e-01
5.309677113415051108e-01
-1.619276480270179230e-01
9.658904271013339926e-01
-1.974487313889674300e-01
-6.794057697058597522e-01
-2.095234735962297201e-01
-3.719423137250216782e-01
5.827765213199869176e-01
-9.135746013745879024e-01
2.112321018489242141e-01
5.271295648584481963e-01
6.625476802662305653e-01
1.434893103851554719e-01
-1.397374451773583104e-01
1.781614708890061904e-01
7.296294495161081972e-01
-1.476196046114423843e-01
-2.521501598270082245e-01
