-1.363500302894854466e-02
3.296442069770956773e-01
-4.571361013202955847e-01
3.560466502758143914e-01
2.876198872574026733e-01
7.096423811575280904e-01
-7.239272063318964445e-01
8.799984204580564295e-01
9.613037600305129882e-01
5.495895867952821368e-02
3.317708803179562072e-01
-4.740893517951477731e-01
-8.981474788741984350e-01
-4.598682742031788284e-01
7.589744131143414396e-01
-8.920901161232549503e-01
8.308967488674394719e-01
1.000000000000000000e+00
-9.783543122557576410e-01
4.313982688860286130e-01
8.500667096324328320e-02
-9.808420821293073466e-02
3.845362935025601892e-01
-1.629239093927816184e-01
1.669923182827166841e-01
-8.286259974569795128e-01
-1.595872313318706104e-01
-7.584394485698793265e-01
-8.360785866088530360e-01
6.269317557259690421e-01
2.171056466566336218e-01
-2.995593632421915675e-01
7.632460495570207726e-02
8.485229000985921033e-01
-4.214317872306416746e-01
-5.052119953737739533e-02
-4.905492850151432771e-01
-1.821992994280251243e-01
7.606855572647723829e-01
-8.489230218308543852e-02
6.488372270710851542e-02
4.327532429578017092e-01
-4.638493716534701772e-01
-6.535884250615765501e-01
6.128662090853082001e-03
4.127581974646580831e-01
-2.539444516676802599e-01
3.953757707281718714e-01
5.706509213856763019e-01
7.730968051874994584e-01
4.421997500473662246e-01
4.412693908799566467e-01
5.248247486141427443e-02
7.645429646286048264e-01
1.990088158003637808e-01
-9.977808488311487589e-02
3.006875969979478924e-01
-5.287081206432298064e-01
8.478471540937911888e-01
-4.090279104962167289e-01
3.651099090531603752e-01
-1.616696621435075309e-01
3.390315073351387598e-01
-7.290736080413065534e-02
-9.384905686403943736e-01
-6.538458925649117681e-01
7.102138111691953526e-01
-7.240534414620924258e-03
-9.505370387538454313e-01
2.113738365893148008e-01
-7.287174260234279000e-02
4.551804614335677179e-01
-1.000000000000000000e+00
-5.617502868913937242e-01
-2.521703123011169168e-01
-8.149767372031320178e-01
-2.357879167832685474e-01
-3.854116308830891624e-01
5.103844539925614932e-01
-6.381050001103262537e-02
-6.574934576396895825e-01
-1.313456860591898367e-01
3.863748228139785024e-01
-6.501413506630097094e-01
-4.539649523076907389e-01
-1.000000000000000000e+00
-1.239607487381420015e-01
-4.649895333945242570e-01
-9.473595530052115743e-01
4.360828731830194704e-01
2.778386504566220938e-01
-8.042813599200602237e-01
6.438689699034946257e-01
8.101474589783259628e-01
7.088587713193136297e-01
-6.987645177200580981e-01
-4.517093978607628069e-01
-5.779808562333170752e-01
1.181008884095996192e-01
6.901158316852635810e-01
-3.031333733459325441e-01
-3.897812468289124643e-02
-4.372530718584461407e-01
-5.037666571432439788e-01
1.244869925946189559e-01
-1.408336853360945273e-01
8.103112584006001429e-01
-5.465003075617078654e-01
4.742122708211294890e-01
3.369276874503595587e-01
-9.489399369060124156e-01
2.810495518465376263e-01
3.608625469762024029e-01
2.802212535972905746e-02
-1.326110572177167657e-01
1.000000000000000000e+00
6.789543652965023268e-01
-5.851604935044834033e-01
-8.021769068874226027e-01
-4.884975786903852923e-01
-4.255869256463284955e-01
-8.996788529370729481e-01
3.356454011330373133e-02
-1.537021671010413704e-01
-6.960205903552464657e-02
-4.489554473393202461e-01
-5.961630803485088448e-01
-9.457926158614438084e-01
-1.829284365193688811e-01
-6.951324995652807814e-02
1.000000000000000000e+00
-7.724779771031073938e-01
-8.609363881716529665e-01
-1.058628507057542134e-01
-1.534920894332647001e-01
1.092109936710788376e-01
1.639921630473268888e-01
-2.130443381341664555e-01
-5.612045696276527496e-01
-5.939801046061660150e-01
-1.480482920962322702e-01
1.000000000000000000e+00
1.000000000000000000e+00
-4.756351568199598812e-01
-3.615997971830866575e-01
9.677656824180639328e-01
8.222568027468406537e-01
3.915089798501022456e-01
-3.214073148305085503e-01
6.595373232454324608e-01
-5.707690008591950193e-01
2.558761538276674297e-01
-1.420607769709066603e-01
-2.216174565235715654e-01
-2.198539063662220960e-01
-2.285188602435242466e-01
-5.782528035443326164e-01
3.938804177422806918e-02
6.472027186534593524e-01
-4.124673596829775413e-04
-7.287685832997383706e-01
-2.603671295561641938e-02
-7.970396348604130710e-01
6.194661300984399821e-01
-8.529613061268309648e-01
-8.298804567549876721e-01
-5.851660267384158898e-01
1.043228490623887145e-01
3.831281200407725129e-01
-2.327627287318444205e-01
4.348264726793906187e-01
-8.402929355959611879e-01
1.206178297698977941e-01
-4.237480936385491503e-01
5.014511751926862271e-01
-9.908734621651850150e-01
1.050915426594908192e-01
6.966287803634030329e-01
-9.356817760531555006e-01
5.456941252701663636e-01
-2.130561011711266661e-01
-4.772324137626827167e-01
6.207769165126232336e-01
8.094103735712621095e-01
-1.096652368158359953e-01
-7.942865987765165281e-01
2.700525354614339846e-01
-6.390333318789399586e-01
4.295660502945281567e-01
-9.310209750738186740e-02
5.570626460427929860e-01
1.458933254883079123e-01
-7.154949230960520878e-02
-2.790078749710229178e-01
-1.064351236784371740e-01
-5.544906582370391357e-01
7.952807181316693397e-01
1.563776596588759282e-01
-6.153830395600268233e-01
-2.230292561284562547e-01
-5.973102811843181703e-01
-7.279466580750284521e-01
3.525333437421171445e-01
-2.858628162393361816e-01
-5.005790607682550908e-01
-4.701153763348370207e-01
7.238347481770701641e-02
-7.419688822873269363e-01
3.415716908073962443e-02
-7.289890419314772885e-01
-5.749445576951675574e-02
-2.857580307211403658e-01
-5.016047141240754792e-01
-4.534918546278590146e-01
4.322306224036458477e-01
-7.958011149865895639e-02
3.009920829657491970e-01
9.767027848485360098e-01
8.831097786747442724e-01
-8.773497444638465870e-02
-1.000000000000000000e+00
-5.565070614991107778e-01
9.312151263153535252e-01
-1.443253199548411858e-01
1.000000000000000000e+00
-3.777853502116945150e-01
6.879203936085659388e-01
6.217313855614268192e-01
6.574448747747738686e-01
-7.205518499282871359e-01
-9.355819523104519364e-01
-2.839210733107112583e-01
-5.826070569372077124e-02
8.032908567537174749e-01
5.043240335353389447e-01
-3.259538473848518358e-01
-8.023859675289612969e-01
-6.176702389191067732e-01
6.052374903812446361e-01
-5.865018961920568374e-01
-4.491809271698117556e-02
2.074638814955643840e-01
-6.033193770671975154e-01
-7.721859479571077101e-01
2.061690984546182479e-02
-4.092401881161873978e-01
9.825620575961538927e-01
7.752336483443639237e-01
6.635499323897745549e-01
8.893294335542849538e-01
3.186429962997363585e-01
-7.629202074872701855e-01
-5.554031701903360263e-01
2.507140845637748083e-01
-4.980067324237011928e-01
-7.345085533158789426e-01
-9.344522509623667261e-01
-1.000000000000000000e+00
8.193255220576571851e-01
1.225045655295268765e-01
1.802774771891545169e-02
-1.545073702701474927e-01
6.763367223681961971e-01
6.402428319901225517e-01
3.933504199736504447e-01
