-4.171338764935977883e-01
-2.424601580204481244e-01
-9.977004666596258620e-01
7.925850819448154727e-02
-1.000000000000000000e+00
2.653918626363417355e-01
7.348276483977407292e-01
-4.592741059598342557e-01
-3.714580848321005213e-01
-5.942579051400007639e-01
-5.022057839386222522e-01
-5.480975322536514316e-01
-1.000000000000000000e+00
7.915732704640999762e-01
-5.767639108725028940e-01
-2.819890579735752079e-01
2.686429325503974508e-01
-4.727714799663051415e-01
3.730222311935101898e-01
-4.291153770805567480e-01
-3.701211737555871184e-01
8.740157874811973482e-01
-7.214226239616142733e-01
4.835188101636258007e-01
6.372663122225914467e-01
7.392261515398541594e-01
-7.572655492967784729e-01
3.058767164999812160e-01
4.450071515011146395e-01
-1.933064836736487768e-01
-8.949288523498952763e-01
6.456791548677145443e-01
-7.253739850420798385e-03
-6.955515319036683630e-01
7.634378011759787030e-01
4.898859074247898238e-01
-8.485349530786810979e-01
-2.982587974180905821e-01
1.000000000000000000e+00
5.277208356203615391e-01
6.849477151947076514e-01
-9.543078344682803804e-01
1.166074771562378709e-01
8.701864431871542127e-03
-7.467072933938966040e-03
8.979915564539200368e-01
7.422126262962028820e-01
-2.201444308965007091e-01
2.414929633500226824e-01
-4.688747768908314018e-01
-4.550285117582459349e-01
-1.069341246243958321e-01
-8.797886472751087483e-02
1.309776310930183818e-01
-9.343977368027025499e-01
-8.633062789991957642e-02
-3.023321076482369807e-01
-1.000000000000000000e+00
7.766016362757269809e-01
-5.446556852925106273e-01
4.809806319460567248e-01
-2.685026246910448555e-01
-7.536398562333580520e-01
-9.139363933708232191e-01
6.231037764801296008e-01
-2.441144325434904949e-01
-3.887477378698732666e-01
-8.231928686693292807e-01
-4.847480210718144722e-01
7.120240039992115078e-01
-4.118724708350840480e-01
8.932035275089960091e-01
-6.343078287110739399e-01
1.000000000000000000e+00
-4.672676268986064585e-01
7.616436929861969407e-01
7.946731851967271387e-01
-2.880872334199414131e-01
1.000000000000000000e+00
7.596337111280876409e-02
-9.129529572279025951e-01
2.706795289709842400e-01
7.192846152380177882e-01
6.479574356731612750e-02
1.469700733106248103e-02
4.970108849807420293e-01
3.086705946848083970e-02
-1.201342096197500070e-01
-3.247311217762581803e-01
-1.897793302978223740e-01
6.666973213592357617e-01
-2.228897064840206221e-01
4.572065611681420255e-02
6.746049027378292484e-01
3.760534304462851418e-01
6.654011906258234799e-01
1.181343915499077912e-01
-7.681767768008073149e-01
-4.253745225529308449e-01
1.021274720657869839e-01
-7.502234622389610808e-01
-8.336538545230621766e-01
7.737830428329393051e-01
-9.174830374034813329e-02
-7.298990599170650517e-01
-5.146824421435509667e-01
2.629398574634200791e-01
1.247782610868995307e-01
-2.586531909236887139e-01
-8.096984550715363715e-01
3.265150122296544000e-01
-1.437952486218343484e-01
1.337814476033112876e-01
-3.858914033932918097e-01
-3.590200510720016336e-01
9.320107173691916103e-01
-3.042867331956619070e-01
-9.175156207146837328e-01
-1.000000000000000000e+00
-1.000000000000000000e+00
-5.708232973818948564e-01
-9.370348835711868052e-01
1.871200372854100458e-01
-4.414523410094906564e-01
-8.310419626339732302e-01
7.728967616736633905e-01
5.853635799124378147e-01
7.539866779987960954e-02
-5.022441944221406329e-01
-3.908672794294389408e-01
-8.610481252049169421e-02
9.607942818977537325e-01
-4.329800676536011972e-01
-2.723546850202432368e-01
-7.720833156438192679e-01
4.679046253911956499e-01
7.358778166777204532e-01
-2.379185618615485831e-01
1.940431963026655049e-01
-6.814029551511535665e-01
4.066330495672875744e-01
6.723046963638068529e-01
6.620877234364450636e-01
-1.549364421436862094e-01
-5.466718812626603086e-01
-5.891160455453249289e-01
-9.336066898369907996e-01
-3.622616942070294166e-01
-1.000000000000000000e+00
5.691556420475294559e-02
6.462667565648794188e-02
-9.675893145902059178e-01
5.013991951327911867e-02
-1.383977481748964455e-01
-1.000000000000000000e+00
3.785920848883701506e-01
-3.825979658888687407e-01
-8.942086915114939583e-01
7.887411654487457291e-01
7.553880606662061181e-01
-3.906896426493418062e-01
1.000000000000000000e+00
2.404471751331304086e-01
1.090964640204232089e-01
7.983040414429880549e-01
5.025674000062058111e-02
8.161712672153917936e-01
-5.453398845903811853e-01
-8.068180497723913547e-01
3.185460162902689629e-01
-3.558362245679425051e-01
-5.427533851872894111e-02
-2.492638202859531471e-01
-1.000000000000000000e+00
5.695765487569142138e-01
-5.282114010292205952e-01
8.561706571461781268e-01
-9.027761248370723413e-02
-6.039065540743401295e-01
-8.069149433590313558e-01
9.314820497268089250e-01
-5.058032789365187742e-01
1.000000000000000000e+00
3.196239695223163091e-01
-2.065591101826724230e-01
-4.335457185054139018e-01
6.157036399569948415e-01
6.601069482996130278e-01
-4.818359567521058873e-01
-3.923417411203408145e-01
3.573984090837435401e-01
5.653280916253469041e-03
-3.319458100712927018e-01
8.580314017234714763e-01
-4.991885340294439644e-01
-6.900770224511192374e-01
-3.011924833195868123e-01
-4.063615243982297565e-01
-1.000000000000000000e+00
-9.345657342980320248e-01
-4.188140721833023827e-02
-1.000611866718334464e-01
-2.033741914951470997e-01
-9.590321809567028399e-01
-9.096833433276204639e-01
3.126779661633704577e-01
3.820106240630517791e-02
-1.000000000000000000e+00
-6.581129063923055744e-01
-1.280475865656626189e-01
1.127361673433330269e-02
-1.048553797280975530e-01
9.089630045643947165e-01
7.324103940945909663e-01
3.800067795627893319e-01
2.821919677075018229e-01
-1.000000000000000000e+00
-2.126524107468904523e-01
9.188658201295553385e-02
-3.175046102726847286e-01
-7.749408539414857078e-01
9.943942301166791564e-01
9.609864334473670056e-01
6.932716144728284791e-02
-6.160651542140962444e-01
7.233943286957295049e-01
5.342474486017375623e-01
-3.625788553141844894e-01
-3.383687286328805888e-01
5.832360156630150838e-01
-9.662227742588849755e-02
-4.155134497574654029e-01
2.498832086564124200e-01
1.000000000000000000e+00
-8.008195490082856693e-01
3.510193497851987754e-01
7.889046951822897835e-02
9.395302232127104025e-01
-4.592722549014275901e-01
1.000000000000000000e+00
-6.797786122755719029e-01
-1.431870176429312080e-01
5.262520897643212514e-01
5.514750897017052234e-01
-8.594061094702895032e-01
-1.187490549753573432e-01
-9.338403994310241485e-01
3.302353714752183089e-01
1.000000000000000000e+00
9.253352695903354075e-01
5.357402230571576274e-01
9.486234674281295298e-01
8.242801436972121421e-01
1.000000000000000000e+00
-3.385364834417922686e-01
-7.545950418485989353e-01
8.879708302185291835e-01
-5.302826604555797019e-01
-7.034700397711642905e-01
-8.389499673874121211e-01
6.770177909839356634e-01
8.097211232199471587e-01
-3.034927105244261680e-01
1.400656459962643652e-01
1.000000000000000000e+00
