-8.791687907929308654e-01
6.911661027435420657e-01
-4.133784845216600390e-01
-5.336030314648889661e-01
4.944778445604494643e-02
-2.086308913901279705e-01
7.392169988302432770e-01
-8.398892154514830954e-01
-5.192397916698415772e-02
2.828761952669435475e-02
1.380636064755072501e-01
-2.885595413650526853e-01
6.689736375828928550e-01
8.596644315936725622e-01
8.186872556316882044e-01
8.393219826540984085e-01
-3.354723242882662326e-03
8.125951393180534943e-01
-4.837651647266708044e-01
4.181112795971225760e-01
9.089397323428229925e-01
1.398976499691942932e-01
4.417582367265422416e-01
-5.580666658892025067e-01
-7.395897647957033749e-01
-9.550637296638733176e-01
6.946971904950214327e-01
-2.516683572917426392e-01
7.014930167081433465e-01
-9.073123443197848026e-01
1.000000000000000000e+00
-1.642667012775085866e-01
-2.246984272345247946e-01
1.485581294400788177e-03
-6.544304139704832934e-01
-9.921169920132347220e-02
1.000000000000000000e+00
6.324395997808828218e-01
-9.497138627593001425e-01
6.958482622993372724e-02
6.972060286491071901e-01
-3.429745106117930709e-01
-8.149347402360713755e-01
-1.000000000000000000e+00
4.660171101695090301e-01
-5.559562917798126502e-01
-7.420414292827177682e-01
-2.388916724428492566e-01
-1.000000000000000000e+00
-3.042770995065435247e-01
-3.457269203614358744e-01
-4.061034779852380483e-01
5.799078734793445822e-01
4.985940361738183668e-01
-6.185399616364238851e-01
7.565935069065242713e-01
7.539586775092936843e-01
-7.156385469107855446e-01
4.419814603194676672e-01
4.133304857469611848e-01
-6.245354567555142511e-01
-1.000000000000000000e+00
-8.837907387753168864e-01
5.928327772807676643e-01
-3.366822177147531514e-01
-2.549758283007727555e-02
6.919860061148583874e-01
2.566610692746884581e-04
9.651015105789167992e-01
-5.572083637740684603e-01
-8.483447462938804584e-01
2.624117697773324931e-01
-6.268594712567666649e-01
-2.683996440533713557e-01
2.913756364068029181e-01
1.215704979430679011e-01
7.506963161662336126e-02
-5.603640039723111199e-01
-2.885034400759367568e-01
6.963694864668088513e-01
-6.596686731363118339e-01
2.753841999134212792e-01
8.809083963050441390e-01
1.000000000000000000e+00
-5.732521562567142182e-01
9.427113647513929440e-02
8.558664800521459393e-01
-1.000000000000000000e+00
8.834732487454906025e-01
-6.024421668688541009e-01
-2.100588911376911616e-01
3.708515390874174700e-01
-3.815370548754198898e-01
-1.000000000000000000e+00
-7.450791967461946330e-02
6.667723370411370309e-01
8.608586246132496345e-02
3.597326164499633494e-01
2.014883136467630342e-01
5.155175829058208370e-01
3.234605070396130988e-01
6.972303057382997493e-02
2.829094640950871042e-01
-5.886566160433124306e-01
4.016885338087765600e-01
-1.184629232709704799e-01
1.706962039244090679e-02
3.016005501533980393e-02
-1.019163049718933012e-01
9.165066031147055536e-01
-2.032936607926201233e-01
2.708368321342822238e-01
5.610509109963497387e-01
-1.234222309276715168e-01
6.283462828391925270e-02
6.162466004863228486e-01
-6.346074635007173392e-02
-9.713664250326117799e-02
-6.836109987945185318e-02
-2.116507905641144272e-01
7.834361889345689001e-01
-1.000000000000000000e+00
-6.249455520805011211e-03
-4.615577360568319243e-01
1.532876165199534846e-01
9.007156905688258330e-01
-1.903804653272357927e-01
-2.226094124671893493e-01
1.000000000000000000e+00
5.511783014591478125e-01
6.566018705239646813e-01
-9.434223613822293464e-01
2.173510553019048774e-01
7.084364057761951550e-01
-1.059689553884146651e-01
-3.774165580583285218e-01
7.631273780920226901e-01
4.148719107097867953e-01
-9.921102136722012022e-01
-1.177290349473553988e-01
8.124831211362991690e-01
-5.196419521122519480e-01
4.740423359545249959e-01
-6.440911939159031652e-02
9.992411170790267416e-01
9.454201768137648898e-01
-1.000000000000000000e+00
2.705797491737134686e-01
8.051885560258705832e-01
-3.008647892703428250e-01
9.230761652900969505e-01
-5.523994642473197825e-01
5.617149169434413336e-01
5.847253219817398762e-01
5.262148838264480988e-01
-6.379099965553222118e-01
-8.567066792358742910e-01
8.215620662169046406e-01
9.717823071820462788e-01
-5.441920740555611369e-01
8.925112452978269939e-01
-2.397829899349892269e-01
-8.407933438429987527e-01
2.964238573543345745e-03
9.772555861096550167e-01
9.546045502202669120e-01
7.427008017369287618e-01
-1.270289974142956302e-01
-1.000000000000000000e+00
4.201545522008536260e-01
-2.579730375716815516e-01
3.566779250947906821e-01
1.871376072802039547e-01
4.538243414914657770e-01
9.778818955611066066e-01
7.567420208736697074e-02
-9.198488505605284526e-02
1.000000000000000000e+00
8.083711024582898585e-02
-5.979467826160633770e-01
2.977248201570013020e-01
-5.552814644240074982e-01
1.000000000000000000e+00
-4.941573788971123093e-01
-3.293373146552753816e-01
7.073572597092592229e-01
-5.231569276740306584e-01
1.044955346259300588e-01
-7.683378688549504787e-01
-8.205596174452518543e-01
-3.841618226362191746e-01
-4.580000909788002894e-01
-4.573934640223465964e-01
-4.936204553315813315e-01
6.502154567866078594e-01
4.329677883438333708e-01
-2.281393030365591601e-01
3.430266698777493795e-01
-1.300597043104130268e-01
3.280052800698124438e-01
2.904765564939949807e-02
-2.873795441548007701e-01
3.602543620415919468e-01
5.931110518918338848e-01
-7.345726030942310858e-02
9.731080183458521438e-01
1.862871875378816489e-01
-1.000000000000000000e+00
8.584320573872351590e-01
5.633027854777981069e-01
1.920062244765780024e-01
4.814508177291151325e-01
2.813917877499729769e-01
9.208339362125811389e-01
-4.448729820715749961e-01
2.003154900096159319e-01
4.625735932088598235e-01
1.000000000000000000e+00
-4.217508077504306119e-01
-1.128378093648399333e-01
-2.110923694449611254e-01
1.000000000000000000e+00
1.000000000000000000e+00
4.428601990660302468e-01
-6.362643318005337667e-01
-6.537525849511793830e-01
-9.172510784916168003e-01
5.466463106212944290e-01
9.988229995485933266e-01
-9.479458359501781173e-01
1.000000000000000000e+00
-8.074914950669160874e-01
4.166508640977921174e-01
-5.007933550558428815e-01
-4.946641674680389844e-01
-6.447690152203537917e-01
-1.047664403226414298e-01
-8.057114162454167561e-01
3.898935623952638485e-01
7.873612712249105083e-01
2.783055728903081061e-01
-8.205390788316249129e-01
-3.629829059398382851e-01
8.654297570302418308e-01
-1.259537772312226134e-01
-2.602546678883864706e-01
4.290273127885194104e-01
-5.615335216537601370e-01
-1.458078462975729295e-01
5.110334168582139069e-01
-3.031469070173102298e-01
8.201587907304581648e-01
1.796489032287046372e-01
3.369542277928797569e-01
-3.804754437003941003e-01
-7.141244832331625769e-01
-8.889814623282480399e-01
7.043822553169625245e-01
9.634504718920603450e-01
3.423417334696352010e-01
-6.333502845674666704e-01
-3.499617608165895288e-01
-3.045829572839902077e-01
1.000000000000000000e+00
3.325769321048978044e-01
