4.989845380035437539e-01
-2.432425051825463369e-01
2.869207167792735547e-01
-8.314173421075711223e-01
5.075475454196465980e-02
-2.425646823493815274e-01
8.536779641454605994e-01
-8.682744582584570603e-01
1.181343159148006694e-01
-4.663242832658390791e-01
3.969941389514612951e-01
2.628643962142006574e-01
-6.851517516332727986e-01
-7.578417645283720694e-02
6.082778397301182860e-01
-2.750332407186596440e-01
-1.433594275984731992e-01
7.201337338546769384e-01
-7.003607264936924093e-01
-1.132344268853541086e-01
-3.279009153301304935e-01
-9.814544923457532155e-01
7.386847285572263333e-01
-4.785869634256882943e-01
-2.233630576555136749e-01
-5.738120451733059735e-01
-3.407894309871785099e-01
-9.666650358356385642e-01
-4.685244618957888907e-01
5.167559784358849440e-02
7.310820215166808911e-01
8.855044927832997348e-03
6.235978638955923525e-01
3.324994109853479096e-01
1.122154406080896338e-01
9.670398030030402658e-01
6.129108877168655267e-01
-6.346954358202705482e-01
7.229475304604413566e-01
4.853846577535531615e-01
-4.556322977702166876e-01
8.476453154287202363e-01
1.000000000000000000e+00
7.008746506886673888e-01
5.442810768747297079e-01
-2.645299147066040857e-01
-4.706719825686094816e-01
4.007313810263227749e-01
-8.616566519554192949e-01
9.695968307769077255e-01
-7.281596454833587639e-01
-8.662550153443373535e-01
8.860380177496530729e-01
3.765974178108143500e-01
-6.824281780553972387e-01
-6.215488177360196653e-01
1.843728776478235354e-01
-3.663145577985952445e-02
7.121989850178422898e-01
-2.082428105579223199e-01
7.796913204425625077e-01
-6.175647043174582740e-02
5.051098201598503978e-01
-6.602952878695534933e-01
4.121028053236720501e-01
4.352526143964836614e-01
-6.888433130169717700e-01
8.829753871814423061e-01
1.086525256972803444e-01
4.570482545545124786e-01
2.252723235630700871e-01
3.085823967214446073e-01
-6.030946773707539510e-01
-9.102529119413186320e-01
-4.506773189948829472e-01
-9.438530699710847571e-01
4.961394455350002786e-01
-7.055463661072083337e-01
-9.995759243174748288e-02
9.028699043840983374e-02
1.745581733355600629e-01
-2.166272383805981361e-01
-4.804689465759230671e-03
-3.878754334454094232e-01
3.751547509790090773e-01
-3.608497701381955802e-01
-4.345351728209626563e-01
2.192593249548526468e-01
-6.573224898952536588e-01
7.482050970862887951e-01
1.290453819223288390e-01
4.993506024753756045e-01
-5.112823395022886297e-01
-4.694832468731522934e-01
5.015092632935543027e-02
-1.545619311593869616e-02
4.489972448530133997e-01
-8.521509457303068080e-01
2.960582091811995720e-01
1.266360212560169729e-01
-7.976386460067171058e-02
5.635836285557508374e-01
-6.122307794371689704e-01
1.229582821194003250e-01
7.662070583563703741e-01
-6.077143762169102681e-01
-1.596413983022675065e-01
9.410732057519317906e-02
-4.073075954112432284e-01
4.753216586708418623e-01
5.054627116879917281e-01
-2.462422041529046812e-01
-8.290371043424560327e-01
3.862535628014381883e-01
6.101436867598923897e-01
5.596626878762653856e-01
-8.469500517500330172e-01
-9.796104303114664402e-01
1.344975974770777905e-01
-1.000000000000000000e+00
4.821709952979250091e-01
-9.544342696392346115e-01
-4.998192001344814450e-01
6.224701240287755510e-01
4.993149423449812496e-01
3.733256828478200839e-01
1.959423518240849815e-01
5.561526557614219213e-01
4.797488107237808386e-01
7.624156130506274387e-01
1.148130343738602843e-02
3.450923966034021850e-01
1.288142974300329757e-01
9.384357959225441137e-01
-1.000000000000000000e+00
-1.000000000000000000e+00
5.734780558787684335e-01
8.237344396816215220e-01
2.121214936380483029e-01
1.200514187329826121e-01
-6.743784901765432771e-01
-1.721467739502102468e-01
-1.000000000000000000e+00
-8.296225372364334216e-01
7.708074714930531757e-01
-6.317381929694851905e-01
3.788542818315095428e-01
-5.166221485375008249e-02
1.686667825313442615e-01
-7.281320305516036928e-01
4.282055114052175232e-02
-3.419694614837941460e-01
9.085033793374383548e-02
1.000000000000000000e+00
-7.393500973621025540e-01
-4.167127379702562084e-01
-3.053982020579045775e-01
-6.449169165181620755e-01
-7.638896649887381152e-01
3.071007397433855868e-02
1.000000000000000000e+00
9.742396982863088528e-01
3.528942952229662255e-01
-5.819217125133433477e-01
3.695781786981108819e-01
7.976479964435544412e-01
-7.101879355491622636e-01
-1.517630634662214262e-01
-8.526033613725179094e-01
9.635926823312804257e-02
-6.555405328291552536e-01
-5.840376308087711354e-01
7.849896663113218320e-01
-6.768436589448382223e-01
-6.185930555957137589e-01
6.795677454356411351e-01
8.457598459479558350e-01
-8.672603456117438103e-01
2.941178772646417805e-01
9.455175554559540618e-01
4.488062368901319932e-01
4.184562952211041131e-01
5.542554853579673146e-01
-2.366840349500859420e-01
9.187866061705772802e-01
7.141275500682141564e-01
-9.287083996141315412e-01
-9.853302957245836657e-02
7.697761833760191630e-02
-9.733858476337110543e-01
-1.000000000000000000e+00
6.294316262521737482e-01
-7.228132796991311171e-01
8.759655873399252446e-01
-3.863133780508145043e-01
-5.823394065903264583e-03
-8.698736926969252714e-02
-2.474607689619541528e-02
4.072387162110300829e-01
2.537964372171754857e-01
-6.080906698388768294e-01
1.000000000000000000e+00
-5.917904059255258975e-01
-5.891332611036435019e-01
9.012007005609972143e-01
-3.869691603066752195e-01
-5.177577348460646323e-02
5.282481961525602454e-01
-6.995435377227696705e-01
5.256240708481962898e-01
-1.000000000000000000e+00
-3.228607010467838823e-01
7.984760341417735940e-01
1.000000000000000000e+00
7.583243432821261676e-01
-2.947586249143047121e-02
5.538925890349649661e-01
6.712602667936401479e-01
9.873829139533055743e-01
6.286905782549974397e-02
-3.413941980442972146e-02
7.717015000217090082e-01
9.227484315911045343e-01
1.133945622602482439e-01
3.206255967834427123e-01
-5.556214309110129035e-01
-7.142920398191702214e-01
6.370232980062612294e-01
4.611407403363700780e-02
1.000000000000000000e+00
-3.730379911770683177e-01
-6.201417030080633719e-01
-4.807210759891472618e-01
-1.000000000000000000e+00
2.062946642895775451e-01
-2.789394232990116129e-01
7.877896002243115481e-01
4.867952431329292673e-01
-1.418504872265078376e-01
-1.000000000000000000e+00
-8.401120274654466646e-01
-1.000000000000000000e+00
-2.481783999515488337e-02
4.330073118239798902e-01
1.054159508505242426e-01
-2.778075538277702261e-01
-5.746963371563837963e-01
6.437019875055856044e-01
8.029110365753681089e-01
9.931696147571492661e-01
5.351745709473134660e-01
-9.526373135094908795e-01
-2.611326748414782850e-01
-2.824148429477896238e-02
8.191554211485311265e-01
-9.095085905273464499e-01
-9.227434796954776530e-01
-5.846715392075461093e-01
2.269496435927371714e-01
-5.091976393606264528e-01
1.426282325163448217e-01
-7.680677656267937033e-03
6.528503538783245186e-02
-9.545713172721342898e-01
5.977933136020716631e-01
