-7.931686138291389465e-01
-2.699998787302698156e-01
-6.186237694087559635e-01
-2.779386241818688763e-01
7.120798614993999465e-01
-2.725021335646055087e-01
4.913703461404618222e-01
7.096856954323205180e-01
2.115062645379809370e-01
-4.826761006547707900e-01
8.892690944046961476e-01
4.886535440723102086e-01
5.073178113575746995e-01
2.236512376030770632e-01
-7.723094032458243108e-01
2.981374750853117983e-01
-3.579080952161097229e-01
-6.276720605912502471e-01
2.405175949123758428e-01
-6.211402374947330163e-01
-4.938820518374580915e-01
3.328442401705685172e-01
6.991726993024180992e-01
4.348765276078762065e-01
-6.619566807077267301e-01
8.417671201090305422e-01
-1.104406972338381338e-01
-5.792828109056281649e-01
-8.070807279582946636e-01
2.961581105031656225e-02
-9.961779824619172025e-03
-1.996484701272705220e-01
-7.733344443638343613e-01
-4.656889208376818190e-01
-8.448967029418200658e-01
4.921038460162263095e-01
8.567761452110972398e-01
5.855836716352135207e-01
1.788494975350811700e-01
-7.108159649025944660e-01
5.811639265150382316e-01
7.637549311790160500e-01
-9.830528591099398916e-01
-1.000000000000000000e+00
-1.379126790789654000e-01
-5.378965156033701511e-01
-2.338989977634012007e-01
3.017022735547234547e-01
-1.224325345049074171e-01
-6.314766238742278714e-01
1.177759433353800511e-01
-3.954004149379907185e-01
-7.748803585082768564e-01
-1.000000000000000000e+00
-1.000000000000000000e+00
6.179115819298264256e-01
3.523806531925413044e-01
7.552959995739894072e-01
8.594647078535440077e-01
5.427529434339892767e-01
2.014498728429801322e-01
-3.632843927132911599e-01
3.412372454172653002e-01
3.639277330913214259e-01
-6.224514767276049243e-01
-1.479414227633931711e-01
6.861991189444275330e-01
4.706029016740863602e-01
9.342587801820405602e-01
8.492576734701263730e-01
-9.235501391819571637e-01
-1.735670656480843566e-01
-4.969933737203547919e-01
9.091858775720662589e-01
3.521037977149252263e-01
-1.828928401856441677e-01
-5.886642135288262800e-02
5.410672299791008388e-01
-5.907139768726455964e-01
2.853761103053153447e-01
3.431564460356985591e-01
2.735927450768433147e-02
-6.680564228411030037e-01
-1.000000000000000000e+00
-4.881734739492426534e-01
5.847611327672066484e-01
5.480751035695707873e-01
4.783752800087175960e-01
-7.684399698303725490e-01
6.653845429721425564e-01
-6.003359619129176039e-01
6.182895840860104242e-01
3.393418151651923509e-01
-7.673290970466815075e-01
-6.377441740066717157e-01
3.545445793217086305e-01
4.902108335938618611e-01
3.871771088846501230e-01
3.711749988781177789e-01
6.154771397188876225e-01
-7.932913665189231800e-01
-6.289812575635828074e-01
-3.359785205843460187e-02
3.793586712386891602e-01
4.498675728891566861e-01
5.879672824533614950e-01
2.607646408370275504e-01
-8.384902490129014785e-01
5.083630110070466168e-01
-1.000000000000000000e+00
-7.330855660210771063e-01
-1.110271536313309215e-02
4.060349646577360305e-01
7.237192516882555715e-01
-9.010506641020502583e-01
2.033806024932927614e-01
2.723701581774177205e-01
-8.499380372614253609e-01
8.946315993960285429e-01
-4.472962235791673735e-01
2.681931429401116507e-01
4.507490362953746055e-01
-4.523403760403592599e-01
-2.458750719980352661e-01
-1.000000000000000000e+00
-5.715524395443478678e-01
6.027033270788482999e-03
-1.000000000000000000e+00
2.256754711480025988e-01
-1.000000000000000000e+00
2.854721118758946075e-01
-7.397474735153252157e-01
-4.855176300513068810e-01
-2.200437122267422940e-01
6.131941166158778600e-01
-2.871869324693773207e-01
3.769636668350797026e-01
4.501363195791246441e-01
-3.239785695116105257e-01
-1.000000000000000000e+00
2.160754369554926391e-01
-1.439855408338805431e-02
-2.526553008747627338e-01
-6.539084673865892539e-01
1.244839793069113798e-01
-3.004703323809763127e-01
-1.000000000000000000e+00
-3.448650676042589458e-01
-5.465244071793128322e-01
-5.292139272351434887e-01
1.974306228865378710e-01
7.276663786394996780e-01
-3.636216152248454292e-01
-6.148409751985679517e-01
-5.006774066350053176e-02
-5.144317103970638128e-01
3.642669308465512068e-01
2.867821904307538139e-01
-2.426691749504674700e-01
-3.843412614582242814e-01
2.257782714142045621e-01
-2.944194919712388447e-01
3.356650871449747831e-01
7.454659755525716580e-01
-4.797740170808504345e-01
6.851379623253369688e-01
2.022707938009056239e-01
-1.000000000000000000e+00
2.102578183677453749e-01
-8.294850727239655441e-01
2.553601142647604627e-01
5.087602562649452542e-01
-3.706989202472441569e-01
3.841999151581951266e-01
-6.940425863718885369e-01
-9.796244076125215638e-01
-7.797920368936771540e-01
-3.971265894679910646e-01
-6.310877385948401308e-01
-7.698856255711421515e-01
-9.840336077116360602e-01
4.101257456359724829e-03
6.256895161081285073e-01
4.509662411315545349e-01
-1.470663122771524028e-02
-5.759511216007140444e-01
1.441810181030372950e-01
3.097755961900700572e-01
7.864636172336315623e-01
-9.035637396979669944e-01
-8.523755627937158463e-01
-8.505007030644746724e-01
-5.490880851328833190e-01
8.313886491443811533e-01
-7.498034941322063718e-01
-1.349291640288437788e-01
-5.095140346751793059e-01
-6.910416845162041799e-01
9.675898834737114429e-01
-2.316394796716964855e-01
-5.095872840061117515e-01
6.460909243625426734e-01
7.748861151375949219e-02
2.582074896010487786e-01
4.465388038436499119e-01
-1.269814845684155702e-01
-7.868462190171428006e-01
7.010075810591739898e-02
-9.719427752228303463e-01
6.051311263595092749e-01
-4.950951850913158370e-01
2.265722866806994251e-01
1.000000000000000000e+00
2.577992851169261801e-01
2.847014878578517649e-01
1.539517497416140190e-01
-5.298358216109209096e-01
3.161234351305236001e-01
-3.351255344682844139e-01
6.529757746592486367e-02
-9.304469905452188438e-01
-6.266993739573754052e-01
-6.575680395587837901e-02
-7.986939174992882529e-02
-1.618069302335552184e-01
1.123465004611612916e-01
2.806037726600832394e-02
8.275032169424800799e-01
2.242730255757084679e-01
8.691628097385514229e-01
3.504034662905819442e-02
8.921544267601974054e-01
-2.477123398543831234e-01
-1.000000000000000000e+00
4.799808865769761290e-01
8.639189965488246470e-01
3.893057498517733528e-01
-4.204988797684554025e-01
-5.600966121526208541e-01
-9.223365798100885415e-01
4.051116924587461754e-01
4.654422107008068799e-02
9.103738417174265241e-01
9.638246834807773222e-01
-1.000000000000000000e+00
-5.923055773353396170e-01
-5.870731548203218519e-01
-2.229524417017333671e-01
-1.143247706031381983e-01
-6.579461282252538346e-02
-7.132619615217703490e-01
-1.086924266727569144e-01
-3.914110729183594706e-01
4.090877194480174728e-01
-8.251273817769686492e-01
1.270498806038556083e-01
-6.847773875393770027e-01
5.428784262082106959e-01
8.090021818834640666e-01
6.301287341512935569e-01
-2.568289865654071469e-01
7.523307790289882613e-01
-1.920703298409583981e-01
-6.010585859971689926e-01
1.207145974409638833e-01
