-9.955195462912362903e-01
3.138885844118589619e-01
7.586280120566557539e-01
7.484062663084201095e-01
3.587181709652960127e-01
-9.864970622840830705e-01
-7.300428007622488114e-01
-7.827278139814105584e-01
-5.196802679499489264e-01
-5.457652582737221314e-01
6.881742913700733544e-01
1.979699051157469414e-01
-1.662091442301640576e-01
3.349423215736364590e-01
8.617233877960724098e-02
-6.217076764487753371e-01
-2.457136743761633990e-01
-2.707873899164242038e-01
-7.479273486314336195e-01
-2.535594616475362328e-01
-8.374062139527057580e-01
7.282217965149596628e-01
-6.078688990561535999e-01
-9.053577663186849200e-01
-8.675915138682466221e-01
1.658214335608050871e-01
-2.265610003867502276e-01
1.000000000000000000e+00
2.109993873183068080e-01
3.846732552120359916e-01
5.093623274287217839e-01
7.359887572286144541e-01
3.405483497440674190e-02
-9.189642723400657243e-01
-1.247132707224674480e-01
8.080761260114097677e-01
-2.945814069185465067e-01
-2.450581229236370173e-01
-1.329434441687811219e-01
9.794746752995031613e-02
6.541783497685338400e-01
9.672911079183176275e-01
-4.465483441441001067e-01
-5.271901424365827982e-01
4.490840487218219490e-01
-8.592661159516881142e-01
-5.774691686526846057e-01
5.289247819702658227e-01
4.965220492754876536e-02
-1.964408638487196226e-02
-5.867404277053402950e-01
8.268737490308130100e-01
9.430869374480186362e-01
-6.191434194888008058e-01
-3.248236113390823299e-01
1.000000000000000000e+00
5.570554140494442530e-01
-8.760407931757978606e-01
-8.214092953217754234e-01
-4.927462341530430834e-01
-8.303460634826338449e-01
-6.822018990784132209e-01
-4.799426195193359224e-01
-3.022362989374681730e-01
-5.467180268233449991e-02
3.977610607194883019e-01
-3.781032123952066115e-01
-8.170234325411213083e-02
-5.283521506320540961e-01
4.870710685866283529e-01
-1.574994485760405905e-01
-6.438422086276750500e-01
2.533224045121695855e-01
-3.457125277392246454e-02
5.050498745304049519e-01
-2.027837714865845520e-01
4.578976625435079995e-01
-8.717679305985455152e-01
8.007238320300084089e-01
-2.424184513699171040e-01
-3.542206867121969194e-01
-6.122523233936454368e-01
-2.285613478580058588e-01
-2.503649011546288383e-01
2.884801647834010496e-01
3.666347147977731535e-01
8.574037004347894175e-01
5.198458709959993262e-01
9.070883150881430268e-01
-8.776639104475690845e-01
7.220885996653539918e-01
1.000000000000000000e+00
-2.719689006288677491e-01
-4.030575702457744880e-01
-6.819495187355759103e-02
-7.344372167208703672e-01
4.484759737265643365e-01
1.266728907371866275e-01
2.022210647112712006e-02
-6.386355328813653198e-01
-4.226712096235125671e-01
4.842476965524353805e-01
-7.431246258922934445e-01
5.334239437290690944e-01
-2.152158083676428135e-02
-7.285976869216191920e-01
-2.400640502006899935e-01
3.236148771423773551e-01
9.683597155108518706e-01
-7.287530203725335332e-01
-1.000000000000000000e+00
-8.250232375142931840e-01
2.030382015897172487e-01
-8.781439016537051501e-01
-7.901479204476061780e-01
1.542793975495012071e-01
-5.781799843853854814e-02
9.768106660007516151e-01
-6.049694339477743044e-02
-1.000000000000000000e+00
-2.896411825579998101e-01
6.859508577809734220e-01
-3.696648201624309626e-01
-7.789213630854203707e-01
5.393626003901107469e-01
5.506658476262251689e-01
-1.000000000000000000e+00
-7.585335157952846075e-01
5.954843981548810783e-01
-7.229044803794570928e-01
1.634914431173944693e-01
1.327681410730676970e-01
-3.144267282770175642e-01
-7.445559664746422834e-01
8.767026474437473738e-01
-5.304388164646127724e-01
-5.166734842600949618e-01
1.489810741277566852e-01
9.888142895134633958e-01
-6.596233317568845900e-01
-7.510987983701330473e-01
-7.247453425245818925e-01
1.000000000000000000e+00
-2.069261338540591688e-01
-6.878655747436026591e-01
-1.000000000000000000e+00
-8.125105579227356323e-01
1.000000000000000000e+00
2.267027287708639482e-01
7.797357077301861894e-01
4.027118390753814947e-01
3.253579328569152773e-01
-8.440283888321066241e-01
3.049520005177147053e-01
-4.686066517225414008e-01
9.051590339823138986e-01
-3.520275810495985258e-01
1.803815977801717096e-01
5.931994205428857692e-01
5.021611082279017757e-02
-4.807083637872429094e-01
7.698682379222039351e-01
-2.504728764002872587e-01
4.408640001285211163e-01
-2.784570984163304841e-01
4.675199616792443114e-01
7.634900016868751971e-01
7.077500999546170179e-01
3.318671772186214119e-01
-8.975935780077231030e-01
6.580469445892468405e-01
-1.000000000000000000e+00
3.901054568866257899e-01
-3.912715761215245225e-01
-2.868216786144635599e-01
-8.574289167737747519e-01
9.176546596887638074e-01
-9.014454239016771453e-01
-3.024213669013964823e-01
-2.393144576490195408e-01
-6.474759453537263232e-01
1.000000000000000000e+00
3.068971983286159499e-01
1.707649433580659404e-01
3.408130082165938268e-01
-9.427378497209125685e-01
3.970150436932624594e-01
-4.365901203653139162e-01
3.584829798905939113e-02
-1.223382874348643151e-01
8.418599924554092118e-01
5.317617871101785187e-01
-6.712380100840446007e-01
1.760734762748036863e-01
-9.945572056404379246e-01
-1.522139770269612113e-02
2.197273648100536159e-01
-9.920052694351745581e-02
8.590616747373057693e-01
9.744686433143445736e-01
-5.352941651067480988e-01
-8.796238204087257762e-01
4.192928810154992747e-01
-7.917576133709268438e-02
-3.390463117965147877e-01
5.785688615413830949e-01
6.598236009774230415e-02
5.842124106051568289e-01
-7.562509025784966976e-01
9.740019644936875887e-01
1.516263953617776883e-01
-8.686947532509448067e-01
8.626518904473408078e-01
7.097170414311183562e-01
7.550906764123972437e-01
8.331615674817491879e-01
-1.000000000000000000e+00
8.754278749159323247e-01
-9.766183794553530140e-01
-5.376172292384070461e-01
-2.650875689254576506e-01
6.195838447248820380e-01
1.000000000000000000e+00
3.594561962929008203e-01
7.464493851222779863e-01
-4.211387522523008520e-01
-6.888779843412285997e-01
-5.777770106196835620e-01
1.887671685100621999e-01
-2.112905719706668628e-01
3.877791033437330004e-01
-1.000000000000000000e+00
-8.294498475551416172e-01
-9.366623703733013562e-01
5.871660469627894008e-01
2.808762089185657396e-01
-9.440202356117237681e-01
-6.957355278051463587e-01
8.058256586328024218e-01
6.382857302469980842e-01
-6.480073045627445794e-01
-3.948628805838058642e-03
5.490582551580421855e-01
-1.000000000000000000e+00
-7.018625299420317987e-01
-1.398807705024316395e-01
-5.195370753491728166e-01
3.696623393865216545e-01
-5.056904810402325090e-01
-2.508761536286019389e-01
-6.135118442128725258e-01
4.452239355022022949e-01
-5.845733962545854867e-01
1.746403382029955154e-01
5.757380879112584671e-01
-3.745484400903557609e-01
5.562283428202045021e-01
6.514999136218051490e-01
7.307964170569993811e-01
-7.940914622060555317e-01
9.860886761867444505e-01
-4.504731742184846510e-01
-8.811820168957782418e-01
7.945935393796499380e-01
4.739384478818377544e-01
