9.274114901497904073e-01
4.493973856725405613e-01
5.775296480531509902e-01
7.975393794481351606e-02
-2.040411867831856130e-01
1.886821431239347757e-01
-2.674339577173421856e-01
4.785743651854793002e-01
-9.033256660373685243e-01
1.000000000000000000e+00
2.422926071973044437e-01
8.399773182642212843e-01
-1.215742544022365146e-01
-7.112087667219836318e-01
-1.000000000000000000e+00
1.000000000000000000e+00
2.983850052826471089e-01
3.247425696006536189e-01
-1.031553923404104484e-01
3.251860817098270462e-01
-9.679691388185289735e-01
-7.636291663389626061e-01
8.613298707023461231e-01
-5.355130319387826354e-01
5.229270215223851270e-01
-2.476867614528369677e-01
-7.791950921733177549e-02
4.774820646845197303e-02
5.142048783773545129e-01
-7.077942668215019273e-01
-8.023976745209582262e-02
-9.204195833551480632e-01
7.121381908133592731e-01
-9.359014634523360465e-01
-8.674049669534908968e-01
-2.364818666926806201e-01
1.000000000000000000e+00
-7.376670996978447192e-01
8.750101098125681043e-01
8.357327174945060611e-01
-5.595685869380092603e-01
9.673885205384886721e-01
-3.042310333968344382e-01
3.474063206964589368e-01
1.000000000000000000e+00
7.261728363825019628e-01
6.543587164034671000e-01
4.703717361003356690e-02
9.995667194863332439e-01
9.201088869951286053e-01
1.695138873016787950e-01
6.446682721374086267e-01
-9.828882631996043173e-01
-5.045378018876455206e-01
-6.844826949626023338e-02
7.952450263013652876e-01
-6.569356610753858128e-01
7.969830579854095820e-01
-5.584940192363253564e-01
5.230051369693076158e-01
-6.065817029082508638e-01
-2.341168720469753717e-02
3.066725957592777996e-01
-8.440877706421001658e-02
1.405175009985452361e-01
-7.318204311653062621e-01
1.000000000000000000e+00
1.520791473572849495e-01
8.624298915276108479e-01
3.750582135607457013e-01
6.775660970750778667e-01
-2.544117962713867698e-01
-6.234620508267636474e-01
-7.841592728428172787e-01
-9.625632523128864471e-02
-6.766294801759019650e-01
7.480694571368863288e-01
-3.907404873605098694e-01
5.705120363354174717e-01
1.793820652605619403e-01
-1.749087373618981589e-01
4.871424315518714243e-01
-6.904645142341726549e-01
-5.768332444162437289e-01
6.342443947298093132e-01
2.525179435971303121e-01
-4.172141318342714039e-03
-1.000000000000000000e+00
-2.507534487520040045e-01
-3.489125047615952990e-01
9.733848180918680537e-02
-7.629018610232247699e-01
5.793479188275352243e-01
5.133699120853165709e-01
3.646201274865986663e-01
-1.389207192828931237e-02
1.000000000000000000e+00
-6.896140613320247414e-01
-7.289299587508335510e-01
1.038197220625423772e-01
3.077864236017791577e-01
1.282502975047571381e-01
2.639625995193272123e-01
-4.558113441495321161e-01
-9.880915885034881052e-01
4.981422534098670085e-02
3.514711836687526292e-01
-9.211309966296264973e-01
6.201377213879463168e-01
-9.345126001118566617e-01
6.757403587058956607e-01
1.186712176046789136e-02
6.526835507121230284e-01
7.463849268334877829e-01
-2.360337251017959881e-01
-6.292817579566677422e-01
-3.917708263391332379e-01
1.000000000000000000e+00
9.365226617483901617e-02
-1.808748924338933195e-01
-2.473541410856794909e-01
-6.373855914403181444e-01
-7.327903125697748932e-02
1.000000000000000000e+00
-3.364920401767936831e-01
-8.087140045886156425e-01
-8.705751740529983351e-01
3.838296254400258567e-01
-1.133186933464052082e-01
-1.000000000000000000e+00
1.597552189415511470e-01
-3.993187521377185578e-01
-1.375000090680051079e-01
4.423294845972206568e-01
-1.691103024174230307e-01
-8.183701341230417703e-02
6.523888120150669878e-02
-2.570413515557575246e-01
8.071432453869161749e-01
8.369555947028222143e-01
-1.302802799238336751e-01
8.188270382769712308e-01
-7.517161547903855601e-01
-1.000000000000000000e+00
-7.167997004884315571e-01
-5.982777696630394715e-01
3.486071935631067098e-01
-1.164191041285519423e-01
-4.701276034008283755e-01
-1.000000000000000000e+00
-7.239609713285890535e-01
1.113462561070602264e-01
5.359312386520135307e-01
8.208488713055522856e-01
6.257893276654326042e-01
-3.336913267367376812e-01
-4.201957922836708353e-02
-6.706584721590955755e-01
2.164668098598097612e-01
-8.034590685324811965e-02
-5.073431493837896600e-01
-1.377680123793356415e-01
-6.782642608385920369e-01
8.325140937153313603e-02
-2.957023151745764578e-01
-8.697607084663037114e-01
-8.048388390418284022e-01
5.704187386455644715e-01
-8.059915373175098596e-02
-7.508693736182994183e-01
-5.768033852405771711e-01
-4.103228274299699496e-01
8.728221174279515715e-03
-9.294988366128705826e-01
-9.851535575980381321e-01
-1.294961190705627430e-01
3.679709642688115956e-01
2.642032581888773546e-01
4.719075947893867917e-02
-2.818550744601344138e-01
8.338626966119642159e-01
3.113014297659078555e-01
1.278517936709603342e-01
1.792422773557443838e-01
5.040673117511570434e-01
1.659641057856359736e-01
-9.608329602438082651e-01
1.475356265334775430e-01
3.782890057706201903e-01
-6.526296592576371625e-01
-4.170006724920902186e-01
2.981583976483141996e-01
7.840237254469085704e-01
4.690601605927082751e-01
-2.938821345637783189e-01
-4.705283448476452746e-01
-2.572623100515756267e-01
6.081688030580275628e-01
1.000000000000000000e+00
-9.711108966737742598e-01
-9.195104854396576322e-01
6.508067464933336987e-01
-4.318078029846795785e-01
8.719066243170010833e-02
3.592044310998065426e-01
-6.633296975142297103e-03
-3.964292237799840746e-01
3.842898984267190121e-02
-7.450858214988724804e-01
-8.052907976761751740e-01
-5.985127381928986301e-01
1.000000000000000000e+00
8.620667031010020853e-01
-7.962318440700001387e-01
1.000000000000000000e+00
8.322093080259556075e-01
-3.595536061110735093e-01
2.280869149515676597e-01
6.262283929080448841e-01
8.709007300635620563e-01
-7.587757000801134133e-01
3.536643187068995442e-02
-1.565235447458993290e-01
3.869913104211390453e-01
-3.618414861536370930e-01
5.045729762685057240e-01
6.891171499407403589e-01
-9.869814200202403631e-02
7.940989324785034942e-01
5.297657344932577006e-01
6.571685442547317013e-01
-2.513659499694056443e-01
1.000000000000000000e+00
9.665975592007795825e-02
-8.641709356665051578e-01
3.879505090781045218e-01
6.184338349020672698e-01
1.000000000000000000e+00
3.306994277746985178e-01
2.278203076517938686e-01
8.280408609827762945e-01
-8.777411233589460515e-01
-2.281438483101460579e-01
-9.006413030475068915e-02
-9.230259902070877542e-01
2.871138074544326083e-03
9.260890429784172095e-01
-3.399079348958419788e-01
1.710565692014234807e-01
-2.975819591878978709e-01
2.948526738118648627e-01
5.757767837890593876e-01
1.000000000000000000e+00
1.000000000000000000e+00
-2.300693229086956948e-01
-6.384507458254843337e-01
-3.028824395837153433e-02
7.156006835984349279e-02
6.377150308948658086e-01
-6.638974284389189684e-01
1.000000000000000000e+00
-5.300373742963624402e-01
3.735902867942187955e-01
6.784189207684121481e-02
-8.465876426236778052e-01
