8.112259443068537967e-01
-5.604709417771325253e-01
3.900068291578145940e-01
9.494318300525417254e-01
3.416316920304143245e-01
-2.059704124704861139e-01
5.209844830357989176e-01
6.313123067724630832e-01
-2.540954407598582376e-01
9.408854056669643251e-01
9.216668061407677914e-01
4.368593619676447992e-01
-7.248749341515972056e-01
-7.066042233838507047e-02
-6.741582989122145708e-01
-1.000000000000000000e+00
8.435895087865615816e-01
-8.402576202856650855e-01
6.261507076393219018e-01
7.755548949741118692e-02
-5.553900584672064600e-01
-2.113120485497063661e-02
-8.608581910534357506e-01
-8.655061497085630995e-01
1.729092950981167276e-01
-1.145341117452989554e-01
-8.918613329254295730e-01
7.736944286663949288e-01
-9.777168097980627470e-01
-1.176529627467913508e-01
9.369285822019202126e-01
2.566948844165926613e-01
9.052434464164728078e-01
-3.726293303381371658e-01
7.453077757069945797e-01
6.837369023198097695e-01
9.317269317127041539e-01
-4.424521128473883902e-01
6.376174313702357432e-01
-4.813771101159802779e-01
4.889234884855642727e-01
-5.869090538153903802e-01
1.000000000000000000e+00
-5.714497813182156660e-01
9.083126717099950787e-01
2.783531968370066556e-01
-4.872808134263021396e-01
9.066431940652835975e-01
-4.892891738794263312e-01
-1.000000000000000000e+00
-2.155279352786022562e-01
4.849509497048378748e-01
-8.789827317724475675e-01
8.760119890703990109e-01
1.536445469838805256e-01
-7.917445165859430256e-01
-4.570433767899093058e-01
-9.494326709664541175e-01
1.000000000000000000e+00
1.000000000000000000e+00
4.261541168382554368e-02
-9.317178475929005499e-02
-4.036393317326695263e-01
-5.157166685190657518e-02
-6.231410406511222327e-02
-3.828893582075727497e-01
9.799122663505178688e-01
2.428601561289103761e-01
-9.863471971230837188e-01
4.805598809173542429e-01
6.219425301314516208e-01
5.289072352038654001e-02
4.195499675816770357e-02
6.595393288042883384e-01
8.500726395360369558e-01
-1.196003080382810890e-01
-3.165678603142813019e-02
-4.796871792192383133e-01
-1.000000000000000000e+00
1.523922695859363241e-01
6.995696459999052319e-01
-1.394635090583080106e-01
1.166804393809913187e-01
2.920204688468148735e-01
-1.228261547544075571e-01
-8.517993558318828207e-01
-7.462310971628549616e-02
7.786047837113774239e-01
1.336460528296810057e-01
7.241764368568966992e-01
-7.728808227155128385e-01
-5.517438010859487818e-01
2.922340987483912356e-01
8.244767211144723440e-01
-9.661007325372141796e-01
8.313803953980494765e-02
2.013780145179311365e-01
-7.255054115921309998e-01
1.770592510289642763e-01
7.365072352846172565e-01
6.347872177969096086e-01
-3.782456469873588523e-01
-8.033586687189688824e-01
-3.693894161005110699e-01
3.249264049228390849e-01
1.000000000000000000e+00
-7.464196867223535925e-01
-4.933433398710576068e-01
3.782383384575526142e-01
8.755228282870609613e-01
-1.000000000000000000e+00
-6.316846131295486000e-01
-7.926973254709981376e-01
-1.000000000000000000e+00
6.190353113183026945e-01
1.614792138681431510e-01
-4.347213647857736118e-01
1.034087114807742541e-01
8.360218427052144852e-02
-7.194058921083397173e-01
-3.586975114074407167e-01
2.748573831102539278e-01
-5.569235912886942863e-01
9.526002814275665864e-01
-2.766418421661868687e-01
-2.437645237556576860e-01
4.025178743980615814e-01
4.568830433460858709e-01
-4.635673258072835201e-02
-5.754338908158828092e-01
3.002944995263534533e-01
-1.631864822585081809e-01
-6.244441076472972973e-01
-1.981988119190007391e-01
-9.206995213974745740e-01
-4.907545936880954862e-01
4.656755201251545628e-01
-5.236672012008569688e-01
-1.000000000000000000e+00
1.000000000000000000e+00
-1.000000000000000000e+00
9.845753571924464875e-01
-4.596984599932506521e-01
-7.899528601691222507e-01
1.000000000000000000e+00
-1.556619361954156289e-03
-9.490890262392905896e-01
8.695619352227207388e-01
9.642817683092713699e-02
-3.234176357477914210e-01
-8.654987609160368078e-02
5.279917844629976598e-01
-7.992978777302781057e-02
4.544137255428823963e-01
-2.459983092620715295e-01
4.027808911931946012e-01
9.055118618428142918e-01
-9.731811319804641869e-01
4.366758446955184558e-01
-2.812372916256483668e-01
1.872637536464802355e-01
1.231686218190934795e-01
2.945924955364689901e-02
7.929608381712296428e-01
3.726560713516591239e-01
-6.836435822430979581e-01
3.025323636199840349e-01
-3.488941000444905072e-01
4.570504161927706477e-01
6.805625824267289570e-01
1.000000000000000000e+00
8.136968009630379806e-01
-3.316253840962442023e-01
-3.875232518484321154e-01
-3.482093529619657568e-01
2.145969774294164412e-01
-9.003676885401866725e-01
-7.220334175678903010e-01
6.954855386022621433e-01
3.380514849461725424e-01
2.377997720192374098e-01
-1.076501618991671794e-01
-4.358542625776413160e-01
7.572181989839255056e-02
1.191898175101739482e-01
-2.285045832647654152e-01
1.000000000000000000e+00
-2.711513895779764094e-01
5.294391317829609811e-01
-1.634091686321567094e-01
6.525609924177423471e-01
-6.063530657013078695e-01
-1.339531242778949638e-01
-1.721865960724134059e-01
1.403230935836024262e-01
-3.250272567666357415e-01
4.397153713952083320e-01
1.461496137910079929e-01
-1.854689870877154201e-01
-1.085312071424009150e-01
-3.112628839348131060e-01
9.322296133334664336e-01
-6.109837236991646492e-01
-1.628337936751979298e-01
6.770865764117144359e-01
8.828626920790220156e-01
-7.651546931588726341e-01
-3.939389691074588473e-01
-5.759460596696961421e-01
1.694631506151930422e-01
-9.187494830035902726e-01
-6.453131060630425964e-01
6.509909887254281546e-01
5.263294441942334423e-01
-1.078183698818414721e-01
-1.000000000000000000e+00
1.649488305845214775e-03
-5.162742170198300062e-01
-8.074974421232289368e-01
-6.324788947294081032e-01
-4.564584963814818375e-01
9.344985137402010977e-01
9.196175896606012534e-01
6.247357011616296862e-01
6.354919472431657113e-01
2.969443124794963751e-01
-5.180752200547975583e-01
8.201247435782887951e-01
2.436508119331149969e-01
-7.210832186138993460e-01
7.339652381020003169e-01
-9.850732043402538052e-01
-3.602492863399704981e-01
6.540125490607741066e-01
-6.342894863308137787e-02
-6.520281137257087911e-01
-2.911647224425807645e-03
-3.687753233293064037e-01
5.870226962876776700e-01
9.047380597063300889e-02
4.208271094913697552e-01
8.406893956656950051e-01
3.541550659060681006e-01
-8.017030530145230482e-02
-1.945824684874131738e-01
-4.961591600868430763e-01
5.636727169148711969e-01
9.528011495026760258e-01
8.150189282072259900e-01
-3.082220410501478325e-01
-2.581448370612423049e-01
2.194894382791069687e-01
1.000000000000000000e+00
-3.845409013653649372e-02
9.589992640397688728e-01
3.888537405958327198e-01
7.437521039898398190e-01
-8.636584548870971378e-01
7.617345188850279669e-01
-1.077368412216877236e-01
-7.961334051386717015e-01
-7.730660184608449947e-01
-1.729240371128586140e-01
8.699123997249191831e-01
2.266450965575545762e-01
