-5.904913012527693295e-02
4.732722479789863712e-02
-6.295671189468041162e-02
2.507731144269390589e-01
-4.917551150571904950e-01
-5.182801868652583410e-01
3.078039630493634715e-01
-4.384916633386718443e-01
-7.498545122224503645e-01
3.777135549845406781e-01
1.591502214880738397e-01
1.965884177577105763e-01
-5.948632806861487987e-01
-4.233835589454825188e-01
-7.756922525927132384e-01
8.083177789049744710e-01
-9.393937250738430000e-01
5.146649243704808363e-01
6.192844278120704926e-01
-1.822681404748071887e-01
-3.846728091654540993e-01
-9.104556579612650413e-01
-7.431920724807371537e-01
-8.457504063649845527e-01
-1.000000000000000000e+00
2.594269708165727328e-01
-3.627057308717314132e-01
-6.479816663204826521e-02
7.078250811794801756e-01
-2.533666770833481463e-01
-3.658872399718313684e-01
-7.326140800705626122e-01
4.910038473460336950e-01
5.793318270932077407e-01
5.026169884774019936e-01
-1.451857808637912195e-01
-4.740230317878441624e-01
2.661795434624658618e-01
2.273187459386677434e-03
-1.940897112244158174e-01
-3.156623409661135637e-01
1.000000000000000000e+00
3.042821375787694294e-01
-8.311839561379292807e-01
-7.797282778291539374e-02
-3.946537991903977804e-01
-5.555610770523076170e-01
8.082031304567752206e-02
9.763987546917257676e-01
-5.728241642052135374e-01
-4.585929174061819658e-01
-9.796458000654847398e-01
-2.578688011948422343e-01
-8.717525256430491698e-01
-8.629915380847879014e-01
4.166071761897857662e-01
-3.761690312139575054e-01
4.348766531892865328e-01
4.234461936313162478e-01
6.464955557429071797e-01
-8.478035276080724270e-01
9.692378238374549371e-01
2.373626752115051697e-01
-9.068401149513191650e-02
3.343393674389339987e-01
-3.458470739379269632e-01
9.915950989686156403e-01
-2.048447717145138181e-01
9.891964253446342559e-01
3.025822557967426385e-01
-7.451704544556151388e-01
7.285009351344854389e-01
-8.185723411397306526e-01
-4.192139030925205456e-01
-8.293537203697303184e-01
-1.771844898920208189e-01
6.277920021930915029e-01
8.981069028429902179e-01
-1.000000000000000000e+00
-1.400124130218067808e-01
8.947458440634439292e-01
1.113030841327547343e-01
-2.853475845281869816e-01
-6.759353023855499965e-01
-5.403862157532997035e-01
3.619205963184413677e-01
-7.437907712023130724e-01
6.676333531788374298e-01
2.401447758709111535e-01
-1.000000000000000000e+00
1.994109091275642065e-01
2.981816471447506500e-01
8.075089665121995552e-02
9.203546891677391040e-01
4.154898190843833716e-01
-6.800308324271028271e-01
-2.033098595324697722e-01
-1.000000000000000000e+00
-2.510044988890139384e-01
1.644073672592045177e-01
5.057321049758987108e-01
9.030713100564959905e-01
-7.503328588815236788e-01
-5.485404058005989292e-01
-1.485330438005212639e-01
-6.810081203373476999e-01
9.229620121385645470e-01
4.035615363927380628e-01
-1.352379667863256030e-01
1.241407317990566583e-01
-2.241360394308896109e-01
-5.329993316424982419e-01
-6.036015120076740348e-02
5.591609323131878362e-02
4.194685548390821028e-02
-4.422105462174155677e-01
-4.214544807244947622e-01
4.784398530759342849e-01
5.234753591151554142e-01
-4.780459645288854809e-01
-5.998003951651288690e-02
-4.410663461021864795e-01
1.880086301314088937e-01
1.937625154372324410e-01
1.126742135293926222e-01
1.700958027413671664e-02
7.137146074007902907e-01
-2.566801800302261349e-01
-9.946179209686906164e-01
4.378835642917207616e-01
-3.535599274852294638e-01
9.719467800369114840e-01
3.494763705077560401e-01
4.130295739881031380e-01
8.359614314909102895e-01
9.742372278837524435e-01
-8.667904650170811243e-01
8.610530145283792347e-01
-1.000000000000000000e+00
5.593950325147258873e-01
-9.399497690652596216e-01
3.675211947620607988e-01
-8.787366959683721168e-01
-1.218452125420717291e-01
-7.863327205149436283e-01
-7.424360009084637335e-01
-5.575895746477704806e-02
9.352126285090670010e-02
-6.242564731870567929e-01
-3.768512877171282249e-01
1.000000000000000000e+00
-9.703923807551074754e-01
-7.538327903196840873e-01
3.361654062573380397e-01
9.047308528216411183e-01
-1.000000000000000000e+00
-4.474832597352805807e-01
-2.226837247701303479e-01
-2.495818522497247616e-01
2.711194383932473695e-01
-6.376633015636190560e-01
-3.268841816697107966e-02
-6.977154772647597980e-01
-4.192861312224900328e-01
-7.134904015861422977e-01
-4.544365190806496924e-01
8.087771513766448539e-01
6.279020184261081550e-01
-4.192911139449044533e-02
3.643309801675739118e-02
-8.531809594215584713e-01
-6.609693106604551671e-01
-8.246395556307355434e-01
5.367148944971109614e-01
8.445133183009466693e-01
-5.334548077087064577e-02
5.893073832703306092e-01
4.978880465769189301e-01
7.617366643358733924e-01
3.155885342748459554e-01
4.506503248366406367e-01
4.998998863697284301e-01
5.628593386370660534e-01
2.301195577334411713e-01
-7.495411704277321618e-01
-4.676557937981941082e-01
-2.406847274716168161e-01
-8.422619318462404303e-01
-3.577101336244146307e-02
-9.328954028906829565e-01
9.536468011241883147e-01
3.141828988680411133e-02
4.762647500560726055e-01
-7.326365488258834713e-02
-3.913589571698238845e-01
-7.143622767820961839e-03
-3.124469265088637981e-01
9.679017393741002895e-01
-3.787587716126190052e-01
9.530803183419839231e-01
-5.772731327921404310e-01
-4.640603329734120652e-02
-7.919771778063481316e-01
6.924243579785139824e-01
-8.574314544893715251e-01
5.057540219856131447e-01
-1.024077444222133010e-01
5.601648260720014649e-01
-6.241070655184515203e-01
3.883796540231717054e-01
2.508455515143381276e-01
2.998442253505129163e-01
2.768681745739892675e-01
6.772183282589272491e-01
1.171971930178061436e-02
-4.791172124370778884e-01
-1.000000000000000000e+00
7.642508180083044111e-01
-1.576360241611682034e-01
-7.335989650103769133e-01
2.619307752783042731e-01
-7.063059587723581334e-01
8.418994681614396791e-01
4.855782005253676814e-02
-9.584128946736583665e-02
-4.312966763597481101e-01
-8.244355586612148734e-01
4.035357730576506485e-01
-3.058408847899288241e-01
7.350810770029053698e-01
-8.500405269078019632e-01
4.251538684907534282e-01
-2.894932836687456046e-01
-8.409092206207532394e-01
5.488549687083123241e-02
4.257868926932429354e-01
-3.057052737289090993e-01
-5.045655245718314585e-01
-6.594506126153801828e-01
3.788322301581886209e-01
-9.250169632354607874e-01
-9.661288772018493676e-01
7.396906249859996896e-01
4.682188275352222595e-01
-1.000000000000000000e+00
-6.720095132789347669e-01
-1.000000000000000000e+00
-8.029988469186373212e-01
6.461394715813228995e-01
7.127095568922667823e-01
-7.451253514268506573e-01
3.891665750808994129e-01
1.199749149461367681e-01
5.367855362200991687e-01
-1.605231829838111579e-01
-3.500002359292135323e-01
-3.727061908421896996e-01
9.652837375144088794e-01
5.547527632884678983e-01
-1.470144237908310725e-01
4.066133344850227926e-01
-3.110133365343442646e-01
-8.214304889915821639e-02
-3.350548013946507142e-01
-8.448880986498819023e-02
