5.403994600623607258e-01
-1.000000000000000000e+00
2.278647904150885861e-01
-9.844396364280439959e-01
-6.376850890877459876e-02
-3.702420747051735073e-01
-7.445437228369575777e-01
8.466948974788027771e-01
-4.535468337136298045e-01
4.095010234377438607e-01
-4.843616212673859112e-01
-1.872737154812401106e-01
-9.938244098826100048e-01
-1.000000000000000000e+00
-6.568070060870061511e-01
8.731401755001367837e-01
-1.871786945068151242e-01
-8.364810028552192023e-01
3.426267534504708889e-01
4.444795871000166709e-01
6.405097607670622029e-02
9.999794176661378486e-01
-4.442668209041273908e-01
6.942930880656145165e-01
-7.620131494587967236e-01
3.172376454678856317e-01
1.647694987802795497e-01
-6.121318576074676887e-01
5.836643896766979117e-02
1.380479920616170531e-02
-7.206119277497638476e-02
-3.363995362592159810e-01
-3.437171641371719044e-01
-1.551005137027007819e-01
-6.568699083119013959e-01
4.558787874336898693e-01
4.681355456279800986e-01
7.103168882610234602e-01
-5.279938281524650945e-01
-3.145604533010001314e-01
-4.654240934584703560e-01
-2.910491462987385702e-04
3.946560860623476441e-01
-5.651815825946682192e-01
3.944375938796096381e-02
-6.829071472127661302e-01
6.192162701217461818e-01
1.000000000000000000e+00
1.142826723960330138e-01
-1.313521890217539123e-01
8.168696415935258193e-01
-1.000000000000000000e+00
3.044121074060108789e-01
4.489391642297320129e-01
-1.122630839960333526e-01
2.757137505084843454e-01
1.000000000000000000e+00
1.000000000000000000e+00
1.645467138566178988e-01
-1.796564168438739562e-01
-1.000000000000000000e+00
6.640874271603814938e-01
-5.767150153721167793e-01
-5.626146265493040532e-01
-8.644295328126672118e-01
4.512852014310875237e-01
9.252050633660890977e-01
-1.000000000000000000e+00
-8.343452235686579233e-01
5.769353699459062179e-01
-3.807886922560979048e-01
4.208855316321371554e-01
2.473629264739310440e-01
1.821796174810081381e-01
3.616008307976017466e-01
-2.846695702930989724e-01
-4.971331416451835183e-01
-2.325744332935103520e-01
-7.093220548244527635e-01
4.464917090487803275e-01
2.862353081755424355e-01
8.715626311966720996e-01
6.432761154452945607e-02
7.453511685347183890e-01
6.600062013869792965e-01
1.605320217687014051e-01
-6.063250619350196713e-01
3.197323940609755333e-01
-3.421283047321004855e-01
5.668623525417360032e-01
8.532943827678363125e-01
1.108159201099967461e-01
1.000000000000000000e+00
3.421741085906247759e-02
6.653275777089762144e-01
-3.828917620754209161e-01
-9.009239105650177493e-01
1.000000000000000000e+00
5.503835452099995473e-01
-7.957965135011000335e-01
-5.943790822161508780e-01
1.000000000000000000e+00
4.086889349637025104e-01
6.796201850476576434e-01
-4.861228980339850625e-01
-9.632599787052085194e-01
9.412249673676478801e-02
-6.379353933870105520e-01
-6.705849184881418346e-01
-1.000000000000000000e+00
-1.203738005409613065e-03
4.684027552556287999e-01
2.834967691809474610e-01
3.603258900052747071e-01
9.800939968428748483e-02
3.570702959429844503e-01
9.006258507010178604e-01
4.779816754816994528e-01
-8.164795123316110903e-01
8.536496530903450175e-01
5.268031007545481703e-02
-5.156329861619959321e-01
-9.439574270092310204e-01
4.149071891880909968e-01
2.292452873812682035e-01
-4.462815035280024434e-01
-6.804701719027042017e-01
-1.351825331954593368e-01
4.586559321538523359e-02
-3.911098022826803300e-01
-2.526436634962420102e-01
-6.468493357178424219e-01
-6.329576141143062884e-01
6.930432479629458076e-01
1.238316574518896485e-01
-2.170316592922397758e-01
-5.844557369012159942e-01
-3.217118943149715471e-01
-1.313977591617336294e-01
1.887264128609452418e-01
7.894298543664878265e-01
7.575931486729674535e-01
8.120944862175435430e-01
7.114726372078904459e-01
-4.429985204487056905e-01
5.958743641639231703e-02
-7.077211189043297601e-01
1.000000000000000000e+00
-1.428258808926118339e-01
-1.000000000000000000e+00
1.462365783385546347e-01
5.852905462511599488e-01
8.789721731328136167e-01
-3.469292353539343288e-01
8.103603710441997787e-02
-1.648268620665087336e-02
1.000000000000000000e+00
7.660867614749293786e-01
3.175560622774473152e-01
-4.081605074079450723e-01
-3.898898901013160279e-01
-9.926002282492416562e-01
-9.383210089652658237e-01
7.305241953271663924e-01
5.908506270120206239e-01
-3.274679629107548617e-01
4.042974075973573278e-01
-2.971939710683579872e-01
-5.511900668272978754e-01
-5.422831838743079613e-01
-7.951972275134783219e-01
-2.602298743628937983e-01
-1.497567341207634295e-01
9.430085595529589249e-01
4.431842357351215567e-01
8.109814690009362614e-01
6.129313436650128954e-01
6.455236736222291771e-01
-9.218546569472300112e-01
-9.267941054096162645e-01
-7.902309370624085449e-01
2.685231289019649470e-01
2.821194493640536982e-01
-1.308646577678840295e-01
5.364333851411022536e-02
-1.000000000000000000e+00
1.689762343926440313e-03
4.968974750698317289e-01
3.809480140344663202e-01
5.887268171023188890e-01
9.057907152173030330e-01
3.057958713032226106e-01
-6.961149569183759933e-01
5.133671790667643231e-01
1.000000000000000000e+00
6.015157581345738080e-01
7.873172089335352952e-01
9.184133581666878987e-01
1.000000000000000000e+00
-8.665695649190019445e-01
-1.464161998571384682e-01
-2.074471504746089323e-01
1.536022645918810325e-01
-8.172380842748068197e-01
4.137179941590706234e-01
-1.209667304822320821e-01
-5.123491301680667132e-01
6.396761563029577102e-01
5.675046604635355374e-01
6.610577781078910697e-02
8.734366221110365647e-01
7.710714633226204429e-01
7.846419084448965631e-01
7.919056381436265779e-01
3.623520602183485373e-01
9.390993812889778525e-01
-5.610337416308738279e-01
2.010200099752626479e-01
2.507160512883283010e-01
9.849429444164531366e-01
2.493849866510905455e-02
-1.039853061721573713e-01
-1.000000000000000000e+00
-6.361859420901319062e-01
5.512295931486649314e-01
1.000000000000000000e+00
-2.774649781725077036e-01
5.938093309073747550e-01
8.025221376967661691e-01
6.406073780487531177e-01
-7.651884148046798062e-01
2.950300143057448254e-01
2.847219204923860381e-01
3.858747239567338894e-01
-5.596366489634175823e-01
-4.195925064061818976e-01
3.527047420280479684e-01
-4.210075741707383079e-01
-2.495785229167842012e-01
-1.874923479082788724e-01
-4.758526334925506918e-01
-1.804669913673395687e-01
-5.322766443363632360e-01
3.653080230414800234e-01
-1.000000000000000000e+00
-1.000000000000000000e+00
-7.744551705854751944e-01
1.580092651300255557e-01
6.987307942535057048e-01
-3.782075927428173445e-01
-9.302342777788563666e-01
5.707619940678916315e-01
8.364916651500822198e-01
-5.897235590389005022e-01
-3.834729113974664205e-01
9.296165127997019217e-01
2.786856663505199450e-01
8.006390444861836153e-01
-1.000000000000000000e+00
1.000000000000000000e+00
9.794421621463040850e-01
1.000000000000000000e+00
-7.175071880287551274e-01
-6.484625493770047600e-01
-1.355661454649019493e-01
