4.984643020849373329e-02
8.265451818712958865e-01
-5.809326282332542835e-02
-2.813295258889566552e-01
-8.688337350314778718e-01
3.744749404765052025e-01
-4.256102419335849874e-01
-1.298519969792156781e-01
1.218658565541673178e-01
-8.816164276935813948e-01
-4.762864076620810239e-01
-7.336187739691020226e-01
-1.000000000000000000e+00
-4.811774531242458686e-01
-3.911079408546703773e-01
-2.108534957017446643e-01
-1.091581646512703452e-01
6.886911669697667326e-01
1.069316173182181251e-01
4.101627600153096020e-01
-4.432586048883723207e-01
1.903060877255711991e-01
5.149068262732700019e-01
-4.241043406141879468e-01
6.675220512631201419e-01
1.262950670320642510e-01
-7.221554611440792470e-01
2.437936897664853275e-01
-9.465818911555770043e-01
4.780432686421965949e-01
9.155864893988603370e-01
-1.000000000000000000e+00
-1.949459115546983423e-01
-2.273210300532669259e-01
5.835008594643905644e-01
5.481387997830433623e-01
-4.231974964864875233e-01
5.336195193473838305e-01
-1.687447300748229351e-01
-3.183626992938597411e-01
9.479210726566502654e-01
-4.319285764237762448e-01
3.505952125585813373e-01
-4.692664713508222230e-01
1.503192017291614946e-01
1.000000000000000000e+00
7.830883363823541998e-01
-5.480124846683682716e-01
1.062600903740341107e-01
8.558616465356602143e-01
-2.893205957893397740e-01
9.885420952504442305e-01
4.732137736165001884e-01
-1.116914843914212641e-01
7.861377583028957838e-01
4.724843457731907614e-01
2.191245208083086871e-03
5.125779923272852923e-01
-2.062722188422116965e-01
-6.294419739136020153e-01
-4.529731639771590324e-01
2.371112600948338811e-01
-4.917025093643402900e-01
3.938275111456268074e-01
6.806572597244769929e-01
-2.289719996629988041e-01
-6.979247064396107980e-01
8.514389251252915125e-01
-2.685035319511443475e-01
1.030904945871818357e-01
3.342568402782442050e-01
-4.908657989405884603e-02
-3.918844995762486572e-01
4.522146523600166779e-01
6.579100337010246324e-01
1.700932046784153773e-02
6.316872024446085199e-01
1.595874237285153097e-01
-9.495942098496788775e-02
3.939626557608410518e-01
-5.602929323100940273e-01
-5.238441469107114612e-01
-6.778718208757974484e-01
-4.410834398695070990e-02
7.514185941959056203e-01
-6.835500124915070419e-01
-6.272782144212664113e-01
6.724232834087489064e-01
9.880650668891548527e-01
-4.313890783139383012e-01
-1.837714673630962414e-01
-9.698498803709296734e-01
6.087503611915179302e-01
1.275123822928823092e-01
-1.000000000000000000e+00
3.698446462169538429e-01
8.410622001857247509e-01
9.935306528336651510e-02
-5.873232716769138939e-01
-1.611391205119723780e-01
8.535832760373868178e-02
-7.157239096409078183e-01
7.484590541514427597e-01
-9.867079467374499924e-01
-1.319852722114521204e-01
-6.660034327137192012e-01
-8.879630232239398291e-01
9.841365572905093062e-01
4.507635711613198204e-01
7.137961793197060700e-01
8.847904538062281166e-01
9.192246095769933678e-01
8.816452663944898127e-01
7.084003183324039110e-01
1.993768081272759285e-01
1.000000000000000000e+00
5.186680774292250495e-01
1.724673188294152948e-01
1.134860865092907067e-02
-6.831735580100768424e-01
-8.335822171631882549e-01
-9.508119974549389397e-01
-8.452442650362544940e-01
1.601973677134013729e-01
2.030067247525780827e-01
-8.242969416257377446e-01
-2.081817230492725712e-01
-2.133405106548005858e-01
2.259095498939466262e-01
7.203424428831980419e-01
-3.822397512383365892e-01
6.456924360112272776e-01
1.049102429716445573e-01
4.486097281437441686e-01
2.566233181288243292e-01
7.681365090322909150e-01
-1.723736582156523700e-01
4.491874382569043256e-01
4.819517358311255495e-01
-7.898699838247424942e-04
-3.891111503037821828e-01
-7.576620254455416203e-01
-2.794682360290886569e-01
-1.000000000000000000e+00
5.170353724648140137e-01
-8.293226648593322592e-01
-2.845072716241776045e-01
2.398766943430218346e-01
-6.786177961228405664e-01
4.124194619908005399e-01
3.362865939339222399e-01
3.246487596211141691e-01
1.922237638309514662e-01
3.260219314511742517e-01
-3.927935127947929095e-01
-4.546126600927407058e-01
-6.387130835286551900e-01
-4.312352609701906037e-01
5.125920357646958081e-01
-8.864609585895776300e-01
1.000000000000000000e+00
7.542338411767521289e-02
-2.481689319675485783e-01
8.783185181878354342e-02
-6.993175393191145561e-01
-3.712255543029564508e-01
-2.669829111112568820e-01
-3.504778794665146247e-02
-1.536880859507138986e-01
-8.203325405448522178e-02
-3.683677507008955576e-01
1.245778488164519526e-01
1.210668679438264700e-01
3.536575898596587275e-01
-2.710315816834807379e-01
-6.339126333558170456e-01
-1.856221824998785519e-02
-2.060819509650697601e-01
2.294909643151696876e-01
-4.180743719919943757e-01
3.245399267950742628e-01
1.891588380423283311e-01
8.332783142520302500e-01
-5.382457503792823506e-01
2.877089590640828365e-01
-7.849080846942202427e-01
-3.147208673438962045e-01
9.461500590636328090e-01
1.000000000000000000e+00
4.004701111041895079e-01
-3.983898820896056292e-01
2.318413074623911774e-01
-1.000000000000000000e+00
8.041268711991063078e-01
4.664004565633830257e-01
8.170105365926618735e-01
8.407093341199448622e-01
-5.919196443956428189e-01
-1.439721736113681039e-01
-3.524216828026141557e-01
-6.270059199036047692e-01
-3.645793825830718204e-01
-3.628603784002204513e-04
3.989953906221072044e-01
-5.599510357225162549e-01
1.572979808225465626e-01
1.060687666266499352e-02
-3.956949768955280722e-01
-5.183875747326279759e-01
1.000000000000000000e+00
-6.906965339131551085e-01
-1.820174801950111276e-01
3.711334495868656713e-02
6.090837478376692760e-01
8.182623092799307107e-01
-6.726899663973897603e-01
-1.062265299057597867e-01
7.233804521029618684e-01
1.590284460381165554e-01
-4.241019123956453751e-01
-3.474148794329598999e-01
-9.712116321286280440e-01
7.152714774480877225e-01
-8.323464373683584494e-01
-4.959041478188707108e-01
-8.789859325213272845e-01
3.349185406687497091e-01
7.971378834459966756e-01
1.590408304683884888e-01
7.813438034636562834e-01
3.192017949786284114e-02
1.929480815135010963e-01
-6.874985414201343348e-01
-5.728564177937179869e-01
-5.769519206037959647e-01
-5.450112667549075751e-02
1.755661338801933757e-01
4.423454961945542108e-01
-6.651726027748972037e-01
4.569116308349716049e-02
8.882273871065559101e-01
-1.000000000000000000e+00
9.868287702395343031e-01
7.603242439083000015e-01
5.493145249267541441e-01
8.182409813631620343e-01
-8.229733194348899383e-01
1.900886217579469961e-01
8.679119517664779515e-01
9.325727609001286389e-01
-4.719669313328815896e-01
6.083674467952393528e-01
6.907443007809994651e-01
1.640677154193402598e-01
7.226887303317355848e-02
6.023553730209653123e-01
-1.264056893193198916e-01
-8.069373747796970697e-01
9.547241236468552161e-01
8.083430613180283553e-01
1.568520645420643511e-01
2.654027950232517585e-01
-1.000000000000000000e+00
-4.593094340057501945e-01
9.167503183056545657e-01
