-6.197156287129861330e-01
4.139307933534343009e-01
-5.238274281167707436e-01
-1.284698967883744491e-01
-1.339911843321653917e-01
-7.977165327163866504e-01
-2.248848472943678831e-02
9.170084683681527515e-01
6.229310528067547592e-01
3.592431140455790706e-01
-8.603983710341862601e-01
1.138606437447003683e-01
-5.186736034059543643e-01
-1.304077676852605228e-01
-3.467356104239113224e-01
-9.009605870778341075e-01
-2.455232076683492581e-01
6.517092382723406185e-01
-3.782200571665034206e-01
-2.914323828976738695e-01
-1.158150427215238754e-01
2.003158163709768680e-01
-6.698685715868737400e-01
5.512963576626943307e-02
3.303418715309396347e-01
6.914119716038182040e-02
-6.807501663646267076e-01
-8.804068361068168036e-01
-7.238803553996054907e-01
-3.280613228471890297e-02
6.321297613863789966e-01
3.100446773700608061e-01
-4.950977373697211803e-01
-7.015960984669585843e-01
-9.834133820613696342e-01
-3.666426978945215298e-01
-9.166334110990755069e-02
2.531397684441917262e-01
-8.766136188721135314e-02
7.125260510759041654e-01
9.322231777861061941e-01
2.283331297236275703e-01
-4.672804020389517143e-01
7.662302744387159414e-01
7.627535158777163371e-01
-1.000000000000000000e+00
-7.090844015816543111e-01
-2.947929966223767489e-02
6.326195010673376640e-01
7.238335244047564565e-01
7.153664569574902377e-01
-4.120882010773799231e-01
-5.645738439590366475e-01
-8.231669727345154453e-01
6.702865148752259472e-01
-6.625865416317784362e-01
-1.203846518520523823e-01
-5.273209609151707777e-01
6.722660458436521269e-01
4.228505743325663979e-02
3.442243166470650984e-01
-1.000000000000000000e+00
5.119340423749089153e-01
-4.720459310377015383e-01
-6.545438792110546133e-01
-8.736992827654569416e-01
9.845970597525852686e-01
-3.066761790484557881e-01
5.750062100454365055e-01
-6.763971646850901465e-01
-3.131413372167171083e-01
4.739230596200869616e-01
6.449823713423905591e-01
1.000000000000000000e+00
-5.559723991353480166e-01
4.091038922708501446e-01
-6.089155810726847307e-01
-3.697585741577680274e-01
-7.375629782865855688e-02
3.979489985123693119e-01
-9.898341636551837297e-01
-2.696189355421614309e-01
8.756040734633986355e-01
5.318092239708375191e-01
-2.276922767724229302e-01
-6.844282793868298187e-01
2.198256212037029700e-01
-3.079068477424122818e-01
-6.550021971294066603e-01
-4.584370735643937822e-01
-3.438409445915291407e-01
2.841691552073632443e-01
-1.694546731327653544e-01
-5.769090183635867675e-01
1.000000000000000000e+00
-8.636870603560889981e-01
8.587879411184335954e-01
-2.849976454460858566e-01
1.000000000000000000e+00
-6.634198720741746325e-01
-8.259006434783311423e-01
4.326377711722229069e-01
7.547683415643992033e-01
-7.291677639727760507e-01
1.099255424422451444e-01
-6.959756367665967947e-01
4.189358943864407436e-01
-4.614164477759625238e-01
-2.781287433065708359e-01
8.619935445438074995e-01
2.093786120880200552e-02
6.869225585775464715e-01
6.555512792015224521e-01
-6.667445293933030870e-01
-2.820863592489332161e-01
-5.614530965905674409e-02
-6.175969275058900143e-01
5.627094857275134476e-01
8.493040143010257559e-01
7.064503819730160172e-01
6.564453587409507795e-01
5.267577245653558560e-01
8.270569261950189155e-01
-4.930376891872289002e-01
8.349078575614765629e-01
-6.997478235037903893e-01
7.252059157128118994e-01
-1.050251405359017565e-01
-1.000000000000000000e+00
5.843962675487521796e-01
1.000000000000000000e+00
-7.300762809431124989e-01
4.993015837021521630e-01
2.431920901474697860e-01
-8.763790085849642031e-01
6.122801620067843675e-01
1.098213239367234750e-01
-1.987894312364571481e-01
5.949045311873468744e-01
-5.654308075797702671e-01
8.559284584986680544e-01
-3.728155648145156653e-01
4.190949932106875081e-02
7.090266306632961868e-01
-5.430010507765337113e-01
4.102763087805437747e-01
9.941161559209253928e-01
-7.959273243286524302e-01
2.723372269671920920e-01
-8.241770864022460730e-01
3.919577793623091888e-01
-4.506627950178473951e-02
-2.441154958047808687e-02
-5.634114751995238368e-01
1.722264992135226491e-02
2.613882585975372264e-01
-3.169361730747533579e-01
4.401062040332674452e-01
7.701304446172655416e-01
-5.792749249730083649e-01
-6.718814703798150489e-01
3.952455634740142942e-03
-5.682993109303859924e-01
-1.521325978946856949e-01
4.409122809529325004e-01
-7.488337686475451394e-01
-3.667240746875032320e-01
-5.677549031650533928e-01
5.266311762132707130e-01
2.916738180309116912e-01
8.499416145809869372e-01
-1.426821356139871544e-01
-2.951942297709952423e-01
-2.696544216120181914e-01
-7.273386903494329092e-02
3.732273590207619285e-01
7.840768697610739357e-01
-4.954444878484025594e-01
4.489152129714800710e-01
-7.947813179300612374e-01
-6.185531715978118683e-01
8.907321147310733878e-01
-8.443283744594497486e-01
3.880435771993507310e-01
-2.431816120404302617e-01
3.545491140636320981e-01
3.597714393691818779e-01
-2.190995610381048508e-01
-6.935910987119185966e-01
5.366845692464131679e-01
9.319449821835347203e-01
-2.624485255410265172e-02
-5.083340857009923663e-01
6.480092037040998676e-01
-4.447480459364452909e-02
-2.089519817762751919e-01
9.423280176776087647e-01
1.705616732709671068e-01
-3.779678649160266857e-01
5.916811384041114064e-01
4.322203845606132910e-01
7.736002558883400271e-01
6.614740406761130398e-01
-9.747184293579604919e-01
8.824636380002266467e-01
7.577988731769960684e-02
1.000000000000000000e+00
-2.716481350787348092e-01
-8.613004698619143307e-01
-6.275839366969189204e-01
-4.513903056676255021e-01
-1.000000000000000000e+00
1.897277432637216876e-01
-2.495540507205340486e-02
9.586589285476845301e-01
-2.493624263937245511e-01
-3.214088118212634626e-01
7.614109267835877937e-01
3.284915543656051762e-01
-5.841502779772631548e-01
2.657766978524975787e-01
1.000000000000000000e+00
1.201798996146846571e-01
8.313994134049745854e-01
-1.900471390171423192e-01
-4.513914724933186517e-02
-9.162630338623007908e-01
-4.365233843629954258e-01
-7.691128217524164645e-01
-2.071885530313027357e-01
5.397654330174086468e-01
1.087080493982235385e-01
4.769675120642083987e-01
-5.604275390719009042e-01
7.265271071797074764e-01
1.184186704626766645e-01
-1.874942834012976178e-01
-3.048079866666213444e-01
-4.526991665620361815e-01
-6.191462858367853261e-01
5.292589451241168641e-01
-6.974977358609912859e-02
-3.652920374129248193e-02
1.000000000000000000e+00
-1.826471061305740828e-01
4.460605885601285348e-01
5.786378842074013651e-01
-3.104155667752068193e-01
-8.399123112702819305e-02
7.967298486582968797e-02
-5.706290510835138052e-01
3.692945814917735214e-01
5.093380268476299655e-01
-6.625575362046943750e-01
9.202522484114614709e-01
3.140658839318704043e-01
9.273061290012257762e-02
-2.537140673471171004e-01
1.000000000000000000e+00
7.369354808707393456e-01
-8.719577372414716310e-01
4.595196935105142488e-01
2.050262955925696295e-01
8.939857531970610838e-01
-9.114692950003534522e-01
