4.106703829407486461e-01
2.576943116977631343e-01
3.521726779457990952e-01
9.430752060849150187e-01
-6.572938248056060528e-01
-4.909837810162005489e-01
-4.212879241163630661e-01
-1.900886653618322764e-01
-1.000000000000000000e+00
8.842858613821341640e-01
-6.795264574680917047e-01
4.424285713978587942e-01
7.102152302265011263e-01
-4.392806864798888822e-01
6.156175716903784512e-01
-9.102398458022221972e-02
-7.284498307695964625e-01
-3.406696743792345106e-01
6.387219526654587254e-01
9.189746111647147941e-01
-1.000000000000000000e+00
-2.292117872540548884e-01
-7.581615127802489029e-01
6.296043781583130494e-01
5.100008613488918874e-01
8.830640233609748924e-01
6.388696030891950484e-01
-9.487231833177042217e-01
-1.843437656200929697e-01
-7.251660027588193724e-01
-3.061635358622426528e-01
-4.118054841977535074e-02
3.163171944446389050e-01
-6.517726646942731961e-01
-2.519759069391362405e-01
8.829177769803782105e-01
6.147742486581069254e-01
-1.000000000000000000e+00
8.182566738626391167e-01
1.000000000000000000e+00
-6.037851249034242862e-01
-2.183145211650466821e-01
-1.553826690596933346e-01
-9.727235180782384250e-02
7.030279721449743668e-01
5.237552317879836661e-01
-4.314799383172297498e-01
-5.044298863073597428e-01
-8.718099701971401827e-02
9.147551793854913349e-01
-4.869623135419677284e-01
9.740670151480840255e-01
5.083162040525458503e-01
-8.111440445728904658e-01
7.498870285379969358e-01
7.670853834671997884e-01
-9.351209564929094942e-01
5.148479436745008186e-01
1.751326909348187577e-01
1.856180182225213304e-01
-1.719783905435527394e-01
2.841201857223949467e-01
9.737696603034984300e-02
5.195977554129462828e-01
-3.323300873185081050e-01
7.286436354769456614e-01
3.260406264929333053e-01
-8.020745593943386931e-01
-1.000000000000000000e+00
8.040349593353238178e-02
3.266124458697738930e-01
7.060427650799693255e-01
-7.235466678430366172e-02
-8.215676033902218345e-01
1.000000000000000000e+00
-5.357212093651508855e-01
-3.476173686679187025e-01
7.553808556616851133e-01
7.626376552770550710e-01
3.590496470283688901e-01
-4.802976848288172951e-01
-5.520499885125326189e-01
-5.538241749171406436e-01
-1.908754032244168175e-01
5.798699137664540260e-01
-4.124782250200950129e-01
5.182364737313976955e-02
-1.000000000000000000e+00
-8.643581792392518448e-01
-3.109423466637652456e-01
-1.000000000000000000e+00
5.488169807797045330e-01
4.923637943272504147e-01
-8.568508949370319261e-01
4.711216647123020462e-02
2.397535587279432112e-01
1.158664390014287893e-01
7.719601230904377109e-01
-2.331098429007232853e-01
3.087638297678747534e-01
4.803421596157796403e-01
-6.714594170863713574e-02
-1.110088157901312211e-01
-6.619853878054458018e-01
1.000000000000000000e+00
8.103134275575446521e-02
7.373338576143871892e-01
9.942605908967211414e-01
-4.195680714423375424e-01
-9.341469206322156049e-02
-1.000000000000000000e+00
-4.106464117928357860e-01
-8.303530595642751033e-02
-7.185379834393903487e-01
-5.619338988977677918e-01
3.940675610836293918e-01
-1.240893569754251552e-01
9.231588610099409342e-01
-7.837265331299796411e-01
-2.640505909162664810e-01
-5.359288370029131610e-01
-9.169256084383003991e-02
-3.062891222504104949e-01
-4.918710031635532554e-01
-2.020132298505628587e-01
-5.573096701875348558e-01
-4.384980107964253637e-01
1.511332692434382285e-01
-3.712540996502096124e-01
-2.603840107737237508e-02
1.000000000000000000e+00
1.136233264329264692e-01
2.831698369394914372e-01
-3.568331825934615842e-01
2.614083516837778509e-01
-2.148322851309429349e-01
-1.884946276628350625e-02
9.660027993237513266e-01
-3.311192239186873110e-01
3.059910793002963425e-01
-2.981813323267334948e-02
5.406283471472263236e-02
-1.491302110538009207e-02
-9.023777528873371256e-01
-5.244618101924775067e-01
-2.087603150899978999e-02
5.130661602852983894e-01
-5.009431877238265107e-01
-2.400645599964286725e-01
-6.487969704509485291e-01
1.000000000000000000e+00
-1.490286943544939235e-01
-1.914131867104567342e-01
9.696689521183763372e-01
1.000000000000000000e+00
-6.033727937714411516e-01
-1.000000000000000000e+00
7.717697601265909313e-01
-1.000000000000000000e+00
-4.615762122492997888e-01
1.000000000000000000e+00
-1.593796614155295610e-01
4.407698049566037279e-01
-2.233611974723307969e-01
-3.002321618943234460e-01
-2.154311368633000934e-02
9.074658481402907428e-01
4.862634612084429375e-01
1.568417566254567963e-02
-9.353119166519043848e-01
-8.435754921140993234e-01
-1.948847810157437743e-01
-3.708628795253272603e-01
8.842982966195395145e-02
1.000000000000000000e+00
-2.437181605023430175e-01
5.201294614736343691e-01
-1.127728047552046531e-01
-1.000000000000000000e+00
2.750821486071008959e-01
6.003227432148421361e-01
-7.498802812921432359e-01
-4.136552831547427034e-01
1.857705472654774814e-01
-9.295831952576665280e-01
-7.581783676458089261e-01
8.435978989399384176e-01
1.000000000000000000e+00
-1.052772694011046145e-01
-9.270080000040513690e-01
5.858558697847863206e-01
-1.060531467742757000e-01
-1.893865449565857173e-01
-9.302610871129226577e-01
1.237280402460947532e-02
2.573144736943167032e-01
6.775752506796567376e-01
5.835739090688703001e-01
7.286296110748433641e-01
-8.720955010194885171e-01
-1.061523110161424616e-01
-7.682457743029365016e-01
-2.878250840138374400e-01
-8.307426704984732790e-01
-4.079084823404708349e-01
3.106293360976077750e-02
4.247791009534855888e-01
-2.769513517023135529e-01
-1.555864866322138051e-01
1.272240160211750293e-02
8.241609061752055432e-01
5.030530267311091874e-01
1.267259485803582386e-01
-2.585450028198506001e-01
4.832473474963984161e-01
-2.481209494198217680e-01
-3.057569518794212571e-01
-2.809272482544763472e-01
6.107851209636495637e-01
1.271112974095436887e-02
5.005771399326170989e-01
-4.816598795609813854e-01
1.000000000000000000e+00
-9.880365910158968035e-01
1.205177896715163843e-01
-4.744469645439977068e-01
-8.962023539682183459e-01
3.624893142702308446e-01
-3.941475445027943225e-01
5.427971662112642814e-01
-4.137909947432957258e-01
3.015405168013777781e-01
-4.394869692075961121e-01
7.268158380312530475e-01
2.005369743917656822e-01
-9.735920705040973511e-01
3.288345381857016303e-01
9.048932248580120463e-01
-4.163852749916739371e-01
9.738363118637192173e-01
-1.362102363577186726e-01
-2.986049471203118255e-01
-9.650695869032850371e-01
6.932114293679958461e-01
-8.209900133226193386e-01
-1.000000000000000000e+00
9.970216427282891924e-01
3.119008166254761405e-01
-4.245682314855755979e-01
4.077068598335726324e-01
-2.135678993846169271e-01
-8.217896022194206562e-01
5.745537023350389960e-01
9.165961680518547317e-01
1.000000000000000000e+00
6.817155677061437213e-01
7.032319545134859684e-01
4.304685610305741261e-01
-5.660622901134670926e-01
3.535608186243657247e-01
-7.045528054579072164e-01
-1.000000000000000000e+00
1.130180129428359770e-02
7.450311506558305874e-01
4.920693865224813335e-01
