3.736456901108591300e-01
-5.999151869599940179e-01
5.662433351212217136e-01
5.654717208034941711e-01
2.723581412034283278e-01
1.771661179367582384e-01
1.000000000000000000e+00
-1.000000000000000000e+00
8.563558819955520152e-01
1.269433498250468334e-02
2.045900779940745817e-01
4.064714787584993161e-01
-1.555638309890074455e-01
-5.134373391496782624e-01
-4.299157837413274952e-01
-4.771095317291498272e-01
-3.849064012655648570e-01
-1.813786302820776242e-01
-2.995340005935753780e-01
-9.180882878814015102e-01
1.000000000000000000e+00
-1.000000000000000000e+00
9.948773258147233234e-01
-7.086581333015565809e-01
-4.573813251692152027e-01
-5.165722305022621974e-01
5.546511643964106009e-01
3.273519196336417414e-01
-2.341778530719728912e-01
-1.768129914724171914e-01
-5.808258344759203995e-02
8.736420183030439990e-01
-5.492739076178456692e-01
-7.657158118854265894e-01
4.925335046397855132e-01
-4.383922067182570714e-01
-1.000000000000000000e+00
1.000000000000000000e+00
-1.144931923383295802e-01
-1.033129805710666649e-01
2.782582081832609688e-01
-3.494329955932141685e-01
4.888942959246281306e-01
-6.222842780804620499e-01
-4.174037141639250770e-01
8.811271739368699007e-01
8.060461017047294563e-01
-4.991295654152962391e-01
-8.980473109271159826e-01
-2.630203963041283233e-01
-4.956272290542974579e-01
5.986964190062846747e-01
9.986576062895439199e-01
-7.725316354352494974e-01
6.230162683867068729e-01
8.976797425284764875e-01
-3.836287250372355517e-01
-1.000000000000000000e+00
4.109536429051752759e-01
-5.475279593377613274e-01
1.671282843714790023e-01
1.179998708644463823e-01
4.837751835037857884e-01
-2.247319558070526302e-02
-9.508928234148704695e-01
-6.452120649981631928e-01
-7.018481530073010788e-01
-7.554208804601796057e-02
9.638236907877371085e-01
6.049869142612077644e-01
8.460800048662779904e-01
-7.266764383257585669e-01
-4.345901329641416178e-01
2.858711916479831361e-01
-1.411587734393322247e-01
-2.931233591359898027e-01
6.482410294447735755e-01
9.112799707175825437e-02
7.810176964144496248e-01
-6.028552669859060797e-01
-4.513864088149097675e-01
-8.186398612953418308e-01
2.465918576607478707e-01
1.000000000000000000e+00
1.664018365667822852e-02
-6.562101118529538590e-01
-1.000000000000000000e+00
5.393947860746279854e-01
6.381201639572640083e-01
1.181660437644856121e-01
-4.186413340227810864e-01
6.177495916788130481e-01
-3.455744527719655235e-01
-4.857135851186091813e-01
7.243516228353341635e-03
7.908689514851365843e-01
-4.987569043760757270e-01
7.333333918655597916e-01
-7.893833520641854173e-01
-2.533870988362931231e-01
-4.480115473744779586e-01
-7.999894609033981752e-01
-6.570612429762423545e-01
-2.089260902633266470e-01
-1.169816017295945976e-01
1.868903578058915549e-01
-7.970280603690256260e-01
-6.508053426394604379e-01
-7.347443144598982956e-01
-3.363036009200065513e-01
-8.001624139582654838e-01
8.926238908448799747e-02
-8.579904123425449169e-01
-6.851511773441358866e-01
1.809097792757133893e-01
-2.752683877888385533e-01
-6.857276222251108555e-01
7.776130818702469139e-01
-7.571568804216914639e-02
-7.620090956911004798e-02
-3.909424958982413156e-01
7.045792795183520862e-01
-7.360109699208222667e-02
-4.344849448144281201e-01
3.806231677777920930e-01
-9.252024336510332736e-01
1.103396750064583043e-01
9.863999120180639846e-01
5.695133908646529131e-01
-1.847670529710847276e-01
-8.851855422097925086e-01
-7.971693512153212868e-01
-5.363131210148484040e-01
3.307138838100184275e-01
-7.811857850133043790e-01
-1.639711803321839412e-01
-6.947466044939448748e-01
-2.930811682418082431e-01
5.627313876787956026e-01
-2.526291670670224865e-02
-9.493336192980632582e-01
1.973034538972319729e-01
-5.569456925091001986e-01
4.511552575357591355e-01
6.251659995570188477e-02
9.131246761548629243e-01
-3.564081874003687811e-01
-8.226917728670877228e-01
8.273810568584060166e-01
7.019267765668210091e-01
7.345846947708426500e-01
2.290299240456442065e-03
-8.269277331154614163e-01
2.992682206942998135e-02
1.316276769664799229e-01
3.342783395227604815e-01
-3.915451317339403714e-02
-1.700322695764667005e-03
3.047665507506636118e-02
1.903815019571189204e-01
8.085096433389291626e-01
1.121442579905029546e-01
4.524713137584798206e-01
1.000000000000000000e+00
5.636884555245397221e-01
-4.946052822717565967e-01
-5.449108198012666548e-01
6.908352495571095098e-01
-8.811189902391894369e-02
-8.548461466208396864e-01
-7.568229620755091425e-01
-5.742355911622849529e-01
-1.949055651550141710e-01
-5.821571422862293899e-01
-8.930205269191957562e-01
2.856674633517684025e-01
-6.742894522587452588e-01
-8.374204076219405879e-01
-6.882497363131313550e-01
-7.149076661119555531e-01
-6.824309833162801597e-01
-1.568667856786878645e-01
-7.090782075259265405e-01
-2.920740798213221356e-02
8.498328855733368048e-01
3.710626948136214187e-01
-2.504246074854644261e-02
1.754243042591171753e-01
-9.307257237727912802e-01
-2.969287289090410398e-01
-1.682482880311106654e-01
-8.113509744713798266e-01
-8.054978815430462458e-01
3.839573723084910295e-01
6.814993333078138704e-01
-9.889937767577758887e-01
-8.383268747338781246e-01
9.673006245609458986e-01
8.733938435116849197e-01
-8.339930765359362397e-01
-9.289351878225378112e-01
9.455182324798566684e-01
6.706112025540945654e-01
-1.000000000000000000e+00
-9.807482740209021443e-01
-8.322154611801453328e-01
1.000000000000000000e+00
-3.462673260040701750e-01
8.179001227176103672e-01
-5.707333835499516228e-01
-5.921912937833921919e-01
6.311664246673866219e-02
4.519220632287887507e-01
1.000000000000000000e+00
7.686911384912442635e-01
-2.725882724068314222e-01
-6.804453253969577897e-02
2.208971158401931145e-01
-3.409894556824761280e-01
-2.555410654834062711e-01
-4.487356869969454376e-01
-8.120969537292034302e-01
-5.414912691381859045e-01
8.907143167245524795e-01
-1.000000000000000000e+00
-2.759622763708186599e-01
9.266558086754591583e-01
1.000000000000000000e+00
-3.263949291976361300e-01
1.783687031867406125e-01
-1.000000000000000000e+00
-5.570411824885993513e-01
5.232707410840016227e-01
-9.522180309514302055e-01
-8.127647637902062350e-01
4.045751504418242384e-01
-9.412768206549613215e-01
-6.077672236796896055e-01
8.832743005652905488e-01
1.000000000000000000e+00
8.857270233672620563e-01
-8.509153367842750004e-01
-8.704972411407945199e-01
-1.000000000000000000e+00
-1.909310000427513476e-01
7.275745289893249534e-01
-5.256887050985925569e-01
4.270863954389771955e-01
-6.250715057620598314e-01
-4.175473560707288478e-01
6.049801239785535661e-02
1.561652673332945829e-01
3.417951367729778478e-01
9.269913013861938444e-02
-3.120116880473705612e-02
-8.135981880063916094e-01
3.970968703957724055e-01
3.986446276125860111e-01
1.000000000000000000e+00
-2.573639087864106334e-01
7.426323947201827202e-01
-8.607231034741340547e-01
4.561236724930733261e-02
-8.529721903830213003e-01
-6.399703857716214639e-01
