-5.536574199639456850e-01
6.127298582179534492e-01
-3.497441443791600157e-01
-8.475453696754351451e-01
-9.119477664166071307e-01
5.148724895821983338e-01
-6.231057822898506543e-02
2.552631560473169747e-01
5.078643291337063825e-01
-1.000000000000000000e+00
-5.406492557303453905e-01
-2.208117881327751331e-01
-9.941671374375626868e-01
-3.176527251755832393e-01
5.378144037424456014e-01
-8.321805127280021974e-01
3.777037837902806616e-02
6.850388852360892455e-01
-7.811004827502361358e-01
4.193192713194942023e-01
1.902371257324215470e-01
2.441261635767396077e-01
-7.656549872603497509e-01
-3.045998307784260062e-01
5.094450368261507212e-01
-6.548073165702928966e-01
5.314213599420386513e-01
5.366751490513047562e-01
4.379408007230043420e-01
5.213954528769920715e-01
-2.545474925038842054e-02
3.294500636460934717e-01
7.721993107447806814e-02
1.000000000000000000e+00
9.364902142150337561e-01
-3.377567803916166622e-01
-1.000000000000000000e+00
-8.910926360264640467e-01
-6.426980150864014529e-01
-3.310452474551792701e-01
-1.528762745365370157e-01
-8.523916430295059854e-01
6.154518609229577830e-01
-9.587453375025700719e-03
-5.994144189775926224e-01
-7.437953002652103462e-01
-6.739913825775654121e-01
9.558536603783954200e-02
8.008136427861221041e-01
-9.496387713449536694e-01
-5.834000975439928016e-01
5.207328932916519548e-01
6.605782991537718640e-01
2.135008167257222145e-01
-8.822910915956211353e-01
2.612579038209581483e-01
9.906926492566301423e-01
-1.789809296133635375e-01
9.915846061440289905e-01
-7.997981579103630168e-01
-3.536711892513552669e-01
-5.817417762107937595e-02
-1.598790902479778064e-01
-9.317321673783571789e-01
5.585016212508623346e-01
5.936993942279437109e-01
5.892998141414530489e-01
-8.464265050820751757e-01
9.561754222958152027e-02
-1.511825131388462584e-01
3.786757317831390690e-02
1.131723780072394769e-01
5.705740847631308732e-01
5.449002077206144268e-01
5.462548900458610301e-01
3.485745147824831358e-01
-1.167115935395460213e-01
-1.611645421860521954e-01
-3.893199021774005480e-02
1.199808160075038627e-01
-9.732536141716152667e-01
-4.529869838996673503e-01
-9.777818240947691031e-01
7.181400680282377935e-02
3.003766170492513377e-01
-2.236907984051502984e-01
1.000000000000000000e+00
5.002109115975245102e-01
6.244833784485097627e-01
-9.197693381512348498e-01
4.111730801660987838e-02
5.856946874002623149e-01
1.000000000000000000e+00
-2.573831781651735318e-01
-8.928404618791028202e-01
-1.799869003711500604e-01
-9.440610879621337270e-01
-4.659258294009794854e-01
3.905715459201937190e-01
-8.614341521992544548e-01
9.938621210623576063e-01
3.360696908198004262e-01
-6.623641206377268720e-01
-6.058791457493032384e-01
-9.574059035617288327e-01
-1.020567707077954384e-01
5.511205799414791162e-01
-7.018742326378417662e-01
-4.589498073239568765e-02
-2.806254128235486922e-01
4.708013366317535531e-01
-3.272171961069680890e-01
-3.285249217200144622e-01
-3.563653361167155031e-01
-1.926221811180733878e-01
-1.765612115216201594e-01
-3.718929280479027488e-01
2.089116194821871164e-01
3.543411062808567158e-02
7.113043424807139470e-01
2.982383915904634475e-01
-6.361623250633526849e-01
-7.745509561481741523e-01
8.120767820542912352e-01
3.837350514065276941e-01
-5.738656430648065854e-01
-8.225207543077029948e-01
-1.539982746202506192e-02
-6.974143207876865036e-02
3.854756711236332345e-01
-2.391313899055011183e-01
-9.299559086844526590e-01
-9.565673682234824282e-01
-6.730225456312355359e-01
-3.315850370110099421e-01
-6.012252888569746823e-01
-5.894630945843777337e-01
1.819536260882322065e-01
-5.790780045306994639e-01
-8.619120581351464860e-01
5.299421070081534735e-01
3.113780672927538573e-01
-8.229699763493515396e-01
8.196708233647650443e-01
-3.583309678682236044e-01
5.226380378166983753e-01
8.936979562948145217e-01
1.194907594072259771e-01
9.593818774278073391e-01
-1.085937326401422431e-01
4.736049468433324305e-01
-2.810552045468898141e-01
6.102266040290780236e-01
8.057417525635147681e-01
-7.824997031169419470e-01
-8.408881668321472880e-01
-1.000000000000000000e+00
-7.221204641602424479e-02
-4.763927259559913030e-01
-5.499434131872450449e-01
-3.776812134002144883e-01
-9.731311597048564188e-01
-4.467693889719496769e-01
5.579046759314529869e-01
-2.502822346687845201e-01
6.055454233307803191e-01
9.682235228573790042e-01
-1.000000000000000000e+00
7.155709435707210408e-01
8.952558631990267246e-01
-3.476333674148957692e-02
9.547624367215673535e-01
6.290210964170841468e-01
-1.000000000000000000e+00
-1.000000000000000000e+00
1.000000000000000000e+00
-1.602339944554733164e-01
-4.268086482067498522e-01
-6.308582107755392743e-01
5.060582352060829514e-01
6.539776530323432313e-02
-5.189315400370196896e-01
-5.693617055170561159e-01
-2.681344230311602517e-01
8.786973615790566461e-01
1.000000000000000000e+00
8.063015057716456102e-01
-4.813946794503088378e-01
-5.171888247327971477e-01
9.297754737251031631e-01
5.840496395916705552e-01
4.492673104265474393e-01
-9.535719062876958363e-01
-3.439075388512728704e-03
-1.905463914717950291e-02
-9.455192231691269544e-01
1.000000000000000000e+00
9.453397068378250889e-01
4.617824546595787338e-01
4.833419423670551329e-01
3.458848879308246693e-01
-1.709306496925679097e-01
4.443533099618222626e-01
7.061953668358953440e-01
-7.076591552535905771e-01
-3.825927581384305221e-01
-1.359006194725214389e-01
-2.371475008604183587e-01
-2.898986904694036415e-01
5.482100824125603344e-02
-8.315586206304570460e-01
6.467926131494985409e-01
-5.135515794252869248e-02
7.599213378548853592e-01
-8.004337325283501503e-01
-2.994361297396814781e-01
-2.931420916616928052e-01
2.419285132076234301e-01
-5.142282368017649929e-01
6.095319675486214894e-01
8.041084684010433303e-01
-9.471705052880616815e-01
-4.259171366913344636e-01
-9.967705496083958949e-03
9.479308652342341435e-02
1.000000000000000000e+00
-5.978847139208249839e-01
-5.778635146343962248e-01
8.693562726317038969e-01
5.463325727806829235e-01
8.658250670015831263e-01
4.884002096399315818e-01
6.323796107545949230e-01
6.688178973008568340e-01
9.931312923997120956e-01
-5.256255482654548228e-01
6.834139151286927616e-02
-5.783068502108041908e-01
9.078494163620890456e-01
-1.577834463602134085e-01
-8.267658560752562391e-02
-9.104832361679924269e-01
1.000000000000000000e+00
-7.403793108020976232e-01
6.555399217387036792e-01
-7.433265880652024649e-01
-9.452390337564733347e-01
5.344246221570640720e-03
-3.761145513051530886e-01
-7.728664860564529171e-01
7.847721158083894588e-01
5.024084517849146669e-01
-4.567705791787225744e-02
8.881796033221113218e-01
-1.000000000000000000e+00
2.039289441520780177e-01
-1.738565025483393145e-01
1.000000000000000000e+00
-2.590443453215557912e-01
2.869899385430371708e-01
-5.699257572624489843e-01
3.341011184619121360e-02
2.441679509836253426e-01
6.532594925123721419e-01
4.174328666397445486e-01
