4.875168971483282987e-01
6.266448192542174445e-01
-7.995515891372766415e-01
7.099466137228212237e-02
-7.929816744057563982e-01
4.244047557351265931e-01
5.016998773464600436e-01
1.000000000000000000e+00
-8.601600498771776460e-01
-5.909694096361249871e-01
6.188245396076702542e-01
-9.284607020403317090e-01
-7.217288004084334574e-01
8.847801003552793198e-01
-8.814235052024896877e-01
-2.539344088211182848e-01
6.954654893345161293e-01
-3.900500041248301519e-01
9.354576976575539327e-01
2.140866622585629181e-02
6.148881307245616101e-01
-7.393093667981534001e-01
1.070760706644347804e-01
7.851013786361400459e-01
2.758722221563418842e-01
-5.532634001829619397e-01
6.662194196645844224e-01
-4.144424732788573595e-01
-5.366941130028345802e-02
7.321797821140829665e-01
1.383876759090268416e-01
-3.170712568960676325e-01
-6.875160408025335901e-01
3.106793727045429332e-01
-9.879165129877864882e-01
-2.718399536415938567e-02
5.659301396104644555e-01
-8.430540471369180056e-01
6.101702803892794513e-01
-9.916157909266740678e-01
-1.000000000000000000e+00
3.435457464747121437e-01
9.559589346755572592e-01
-5.166323500458352980e-01
5.916175823153028146e-01
-3.816113813591375248e-01
-1.482203337493157025e-01
-9.899490463637139470e-03
-5.643922304184759153e-02
3.752555127918871802e-01
1.747687184366828461e-01
-5.525013736741322123e-01
8.640329330878210312e-01
6.724343301339920087e-01
-6.310038930834680482e-01
1.000000000000000000e+00
6.209403060280848513e-02
4.879739314977273312e-01
-1.000000000000000000e+00
-7.802239578057261760e-01
6.149945689874271038e-01
6.711933828680813896e-01
4.342115205264193700e-01
-5.006979885910796124e-01
7.789836297670669207e-01
1.000000000000000000e+00
9.503132834970460241e-01
-7.543443275892457167e-02
8.366198638354446770e-02
-9.118039123912895227e-03
-6.394106088927322684e-01
4.242730789893403576e-02
-2.332133817841582357e-01
3.329088253551851784e-01
-5.691317295921127783e-01
-4.301906094600373986e-01
1.000000000000000000e+00
2.683141268268178226e-01
5.788608206680451174e-01
4.878918602816602057e-01
-7.244447079451817872e-01
-7.927167458878939810e-01
2.682380616631967474e-01
-5.563337441808990924e-01
-6.043380712304204788e-02
-6.780655587497394499e-02
-7.963650330904203933e-01
4.183056543272135608e-01
5.714888411239480437e-01
2.208419120340928132e-01
8.538850411852265676e-01
-4.468077095798166365e-01
7.599233015576594141e-01
-6.525791823644109257e-01
-3.165917780541297466e-01
-7.791411609171452479e-01
4.471994550473528118e-01
-7.891494848768101367e-01
-4.318063074004083735e-01
-8.438424191964394305e-01
6.909572138925127449e-01
-7.399505568244346687e-01
-7.619400373719316111e-01
4.499302642892237802e-01
-4.686038671703130487e-01
3.389831420695331166e-01
-7.856162675078210977e-01
-8.612912647750370354e-01
6.577959617352349131e-01
6.059193591174606430e-01
3.087728813541620876e-01
-4.513616900790257125e-01
-8.228747196142252029e-01
5.551669297993640229e-02
-1.000000000000000000e+00
7.763197006498877284e-02
3.282753205129707030e-01
-1.854806072956874385e-01
-5.531357211209376734e-01
-9.212399678849110263e-01
-1.401425457992041823e-01
-1.000000000000000000e+00
6.919817775472720811e-01
3.930763010957742942e-01
1.788780101071067441e-01
2.119605889984307878e-01
9.700751612531387513e-01
-6.181516972242513397e-01
4.889634332281750928e-01
2.725899902019859877e-01
2.191676803940335316e-01
-4.122262682219057783e-02
-8.165216024626191782e-01
-1.000000000000000000e+00
-2.255116406964055575e-01
-7.854478044126829150e-01
8.833345021595462310e-01
3.824322579864088134e-02
-6.861992917449026841e-01
2.691192887451289706e-01
-4.177922489462841948e-01
8.194599782228124685e-01
-3.383838510755261542e-01
-1.365118481691666719e-01
-9.625454735189349353e-01
4.963215052785066028e-01
3.883136143896694370e-01
7.234558261404975266e-01
1.000000000000000000e+00
-6.913802404078588371e-01
1.000000000000000000e+00
3.996080136291398910e-01
7.571844894840689122e-01
-4.634724831774988396e-01
3.889450807058740800e-01
5.481351452843774563e-01
-8.352712523089361740e-01
-4.192903758590862395e-01
7.446508166912543247e-01
1.000000000000000000e+00
-3.604349574838393577e-01
2.047324888853468416e-01
1.634944993933645507e-01
-3.904476107748500735e-01
1.194592321370873261e-01
5.321495707069223702e-01
9.882173684431908023e-02
3.680161313978752569e-01
-9.625927523908598404e-01
-1.030458365619553590e-01
2.677033492642607593e-01
-9.224543940143280496e-01
6.222950030259890575e-01
-1.000000000000000000e+00
1.740076958033132393e-01
-2.564399048605541243e-01
-3.418049812905459284e-01
-9.774764168168094125e-01
-4.280999246040026462e-01
-3.209751686346754562e-01
-3.129468150882140365e-01
-8.080965942273085068e-01
-1.000000000000000000e+00
-4.978927486014811388e-01
2.971122972182393962e-01
-9.789420792062903942e-01
9.223588150700915422e-01
8.138848119489526800e-01
-2.729437170001922097e-01
4.173384934242904132e-01
-5.971168802637469852e-01
-3.007423904996460728e-01
-3.628963513382795769e-01
-4.678660646294736103e-01
4.275668128138749857e-01
3.088314964451581157e-01
7.186468674457463512e-01
1.954153686725338401e-01
8.343708427442523279e-01
-1.000000000000000000e+00
-7.311713892762715661e-01
-3.307432419678483781e-01
4.382833442294772897e-03
-9.555374012496687941e-01
-4.496353870693754473e-01
-9.663044986015215665e-01
9.989112131130899463e-01
-9.254159067835151520e-01
5.724386213496613918e-01
1.000000000000000000e+00
-4.810136393833421287e-01
-7.296428797265787081e-01
-1.273099574101528297e-01
-5.061857918320283173e-02
-1.294918109211734558e-01
-6.982693140050609815e-01
5.586345258885763165e-01
1.000000000000000000e+00
3.462685535476946186e-02
1.513063934205442496e-01
-7.265579491349359875e-01
-9.801391720100693927e-01
2.232027063834800540e-01
7.759934720767335259e-01
6.558014883307096143e-01
-8.219807374022947144e-01
2.145608176434628533e-01
-7.070416213889684220e-01
2.208123916275035736e-01
4.052943935509522588e-01
-8.600092309468692076e-01
-2.667421313707389885e-01
9.386835157844075628e-01
-7.689730862962707025e-03
5.287490746235669059e-01
5.191764517590931050e-01
1.000000000000000000e+00
-3.134472777363968565e-01
9.634697866116626042e-01
4.593329043514868260e-02
9.484708446673548732e-01
-9.604968932913844348e-01
1.164944518199052398e-01
1.751641714067985744e-01
-6.525436634014136761e-01
-1.000000000000000000e+00
-8.681273845492473717e-02
7.092443021295240513e-01
-1.790167257622226615e-01
9.987164997345190365e-01
4.466913127013810159e-01
-1.000000000000000000e+00
2.609074765090350634e-01
-2.788895330233454040e-02
2.187817689751601347e-01
-6.921420570948445539e-01
1.000000000000000000e+00
5.017732278277289293e-01
9.438496794712180060e-01
5.051869333725405031e-01
9.711845346397770529e-01
8.608334010383812407e-01
9.085907868680992427e-01
5.275855303761574078e-01
-9.494612431474568348e-01
