-4.524708692397327869e-02
7.682920180206963545e-01
8.556710617473961555e-01
-9.496334714392857812e-01
-3.951970061564485243e-02
4.710889771605517584e-01
-6.759379182708065148e-01
6.133501138429862110e-01
-8.318639225287378647e-01
2.346810562943465739e-01
4.151003016470840579e-01
-2.756140526945798919e-01
5.570244568572744193e-01
4.183403884955421703e-01
6.814446682678939604e-01
5.434401900667229501e-01
-6.939342320237530393e-01
-1.167543570249729157e-01
-5.779906014578299889e-01
5.164749706517887118e-01
3.897866786156544139e-01
-3.469669907933604081e-01
-5.846827844772212179e-01
8.332024028505539137e-01
-3.038844154313419255e-01
-4.856951868033960729e-01
-2.027783280753775452e-01
2.664435616908856774e-01
-1.543799665075442917e-01
6.062228046651519930e-01
-3.266144664135945952e-01
9.126730228898009001e-01
1.878268165408641388e-01
-7.141557123078403624e-01
1.000000000000000000e+00
9.572380545352706660e-01
-1.863003881125200878e-01
5.644877594643689100e-01
-9.286092778556045424e-01
1.000000000000000000e+00
-7.704088078091202441e-01
9.783548908696939606e-01
9.345024552255137840e-01
-8.268221720702971789e-01
1.000000000000000000e+00
6.106777611936962114e-01
1.384399327613090869e-01
2.072626725597482011e-01
7.214646461959011159e-01
8.865827570321055395e-01
5.040065904625898319e-02
-6.524457713949856075e-01
4.556905659707269907e-01
-3.154371592723544948e-01
-1.330346279087734340e-01
8.946043786769956041e-01
-7.429150464770110096e-01
-9.393373747090885129e-01
7.988396239897906925e-01
-6.544295489561284818e-01
1.832029816310983272e-01
-6.067365194709147813e-01
-1.000000000000000000e+00
5.579973714939223672e-01
-9.763138071504767757e-01
-5.206022150420299699e-01
-3.516748616752126688e-01
2.309322375361033131e-01
-3.775987927809995592e-01
-2.351490414219536973e-01
-9.442559496207002523e-01
-5.660777364480421570e-01
6.791313563122565178e-01
-1.785255370193792324e-01
9.528199974247860693e-01
-8.586425483837052397e-01
3.530110736234357005e-01
-8.309296704730784189e-01
2.286007009610199758e-01
4.027059843514114168e-01
5.153549430471177084e-01
6.822798072487742393e-01
-9.377450282253327885e-01
9.358595227587864773e-01
3.428040397876805923e-01
-7.732841159149705934e-01
5.926950233039557370e-01
-1.447467758784581060e-01
3.885280273492297543e-01
2.184358435677708765e-01
6.725820554066124224e-01
-6.972893959628700955e-01
8.408690198588830711e-01
-6.050707398659284086e-01
-1.000000000000000000e+00
-9.136796399082729447e-01
1.973411387928521721e-01
-5.638605395708805590e-01
2.359761331068877255e-01
9.483244255165615977e-01
4.768081886043623041e-01
4.711830252142795716e-01
4.892664252847991335e-01
2.279896017248213003e-01
-9.515764493299014859e-01
-6.808359526894998126e-01
-2.323109563599271010e-01
-2.188631858970540855e-01
5.961748196001792621e-01
7.777221993883222106e-01
2.661551950458793669e-01
9.669962234083963049e-01
-8.669011025962841677e-01
-8.121571929581714588e-01
9.437581235981901129e-01
8.169079131919383396e-01
3.539126993094383611e-01
3.421498931770033947e-01
9.660554763848319126e-01
2.946768655865371345e-02
-4.075267343722336344e-01
7.433679947639969532e-01
9.544536417083134827e-01
6.702558296815319672e-01
5.729268012567162449e-01
2.936938451617755463e-01
4.373042417945059435e-01
-9.538388568607827911e-02
-5.533109020179977078e-01
-5.182734132858786147e-01
-9.238893332444619855e-01
4.415730681771259380e-01
-5.708850999553383154e-01
-5.460226882426288952e-01
-1.000000000000000000e+00
-1.872509146458047335e-01
-1.937164355165172658e-01
-4.521525349236024116e-01
-9.077351373815925051e-01
-7.916944605670722668e-01
-6.557650814936951678e-01
-3.519159334786151616e-01
1.634159750891058804e-01
-3.619384798352201504e-01
8.259482150629793296e-01
6.900203391518783258e-01
-1.000000000000000000e+00
-6.901286079232500370e-01
-9.999410931616532494e-01
1.120630762465520402e-01
1.000000000000000000e+00
-9.169547153035673137e-01
7.169828998761949013e-01
-3.277722933140281292e-01
4.865391369050546810e-01
4.365390181405717773e-01
1.661941923063631754e-01
-7.643567409149707448e-01
3.936914261373188895e-01
-2.246334560623375332e-01
6.809702790975887821e-01
1.720944928356695214e-01
-7.990878762112446632e-01
5.750369036868567818e-01
7.537016038490198522e-01
-3.555951248430432865e-01
9.634596845850993407e-01
-1.000000000000000000e+00
-4.572929475902794832e-02
3.170841739067891130e-01
-4.168118332622121058e-01
-6.301541013995939355e-01
-9.930702101415067595e-01
-7.898790929170393937e-01
7.327084327330943836e-01
3.312069380275159403e-02
-5.138371436995248231e-01
-7.252485001422401822e-01
-6.614805679465817212e-01
8.248368417675546738e-01
-9.260782209182560898e-01
7.457720339850070213e-01
4.339183082345145215e-02
-1.828928715443514097e-01
-4.743536872448398389e-01
-3.461090961567750979e-01
7.705983436905210482e-01
-1.479316897289979504e-01
-8.884419782524366482e-01
1.000000000000000000e+00
6.850509869919727546e-01
6.565750484771990525e-01
-4.442496448586304436e-01
-8.175848549473487825e-01
8.842100966477357549e-01
-7.367517924780222494e-01
-7.887197306061373148e-01
-5.213177742661303515e-01
9.285129990871732186e-02
4.589346995677382468e-01
-2.572166990513739537e-01
8.017822817469438812e-01
1.960292121778225427e-01
-8.332141625385905970e-01
9.029105144933189386e-01
1.405364472909756413e-01
9.253471448640454566e-01
9.426922831564685801e-01
3.231656442212407776e-01
2.490005768946778608e-01
-7.542667082380616339e-01
-2.749170019583610514e-02
8.048927297750884113e-01
4.055179879426279443e-01
6.972223951936580288e-01
7.634164189165058012e-01
2.028722046315492022e-01
3.608036105187663045e-01
-6.239750343542362909e-01
-7.608563444722958868e-01
-6.787632745768739095e-01
1.168531158954605048e-01
3.814784509977783844e-02
2.346454561803140715e-01
5.799361783361165479e-01
9.020521248909021961e-02
2.468257915462514496e-01
7.227723639741534534e-01
1.000000000000000000e+00
5.942985167533206825e-01
-5.698450442089322276e-01
6.112754878472921316e-01
-2.635782321926074534e-01
4.065370765630890171e-01
4.238951165027384782e-01
5.213037785904446331e-01
-9.411832196508609361e-01
-5.014673878200150980e-01
-1.114787450506005834e-01
-1.823257343869073566e-01
-1.972612645171705481e-01
-9.048142609676042003e-01
-3.062697798094748958e-01
-4.099857613476038387e-01
-9.630699512353311231e-01
8.544766311717043594e-01
-9.647761078652398181e-01
-6.832244300455641017e-01
3.038463143131781563e-01
-4.286437763868019557e-01
8.668567280888167526e-01
6.185255131501314896e-01
7.281652760849266492e-01
-1.000000000000000000e+00
5.883116599457864915e-01
-7.716679320180317436e-01
1.000000000000000000e+00
-3.306506024412596001e-01
3.745161127757888897e-01
-6.604156438721702216e-01
-3.240413284417084094e-01
-2.420752244832707067e-01
2.664697014965067834e-01
8.102781033076442707e-01
-4.969413795269344014e-01
