5.148505042515072461e-02
-1.000000000000000000e+00
-7.512378376963367854e-01
8.659649085018625847e-01
4.942889297529737824e-01
7.466581890682162381e-01
3.282858476407827797e-01
-1.334851392985352270e-01
-5.046287514109653038e-01
-7.885052058863820656e-01
5.456180199604581116e-01
3.545730277687767495e-01
7.025358389114055857e-01
8.466693003111119831e-01
-5.956807564257946552e-01
5.344015141451342599e-01
2.621774126246396719e-01
-3.937141783325628919e-01
8.230815484852385122e-01
6.852204565792692215e-01
-7.816815731162172209e-01
4.167116803031540861e-01
4.611599871076154100e-01
-2.244469196753505202e-01
-8.363554240963023689e-01
-1.000000000000000000e+00
-9.234562783681898868e-03
-3.619749084248281568e-01
3.849085020236869825e-02
-4.533179248000243633e-02
-4.865024709549525261e-01
-8.769357479286898904e-01
-6.292081451519140334e-01
-4.380759499767379883e-01
8.470080260342437439e-01
-9.723684197464088630e-01
-2.401770691796339396e-01
-5.594727872478464370e-01
-8.544126865222273493e-01
-2.373429900110807234e-01
4.746671365108874885e-01
5.593045869698050065e-01
3.600089472278731328e-01
3.698263397025923771e-01
8.716260615021697022e-01
-7.314375074658188147e-01
2.539484257839308423e-01
7.857401920424540442e-01
-4.498809630858578990e-01
-1.026147471705461667e-01
-9.443900376108008143e-02
-1.000000000000000000e+00
5.580894443525616921e-01
-5.095382121783682550e-01
2.612532395466560797e-01
2.276254563057549529e-01
-4.810674238156922300e-01
4.971390726380219283e-01
6.642724741225388696e-01
-1.481418486506992649e-01
-7.663492557579948405e-01
2.641707669733190933e-01
-3.933473680985209442e-01
1.000000000000000000e+00
6.213849899135218680e-01
-6.832136761432717753e-01
9.339638589052109419e-01
1.499172799472930362e-01
3.969280189438297024e-02
6.479973696853066345e-01
8.307720881493696474e-01
-3.575167718644217674e-01
7.620544408396242586e-01
1.234839584946092472e-01
-3.371142633252185994e-02
1.597377813139591596e-01
-4.466633769913059271e-01
-8.722752187536078061e-01
-8.426661358957823200e-01
4.534857281140454166e-01
1.579048539962877029e-01
9.970924545296147024e-01
6.997119375447777845e-01
-4.095362214717686578e-01
-2.188541586121172111e-01
6.403387257818107248e-01
-5.342952471340388643e-01
5.757295865830063253e-01
8.183281355649270061e-01
-4.898942057552281293e-01
1.407367099981606529e-01
3.957073476028988290e-02
5.873811286963693812e-01
-4.353740432846517905e-01
-6.773973678347018357e-01
6.591830880700693118e-01
7.200618792970183701e-01
9.359568826426177823e-01
-4.372177543653393839e-01
6.008284625301205661e-01
-6.175634860207632748e-01
1.562205688320061209e-02
7.496854282987858165e-01
-7.192434850316418160e-01
2.874405581949169841e-01
-8.258698598874153474e-03
6.225132936524404581e-01
1.994038126891881368e-01
-1.107089873874441965e-01
6.559432592661051942e-01
-4.377933673543092652e-02
4.087036732730324196e-01
9.271949014097935482e-01
-6.993545029741681240e-01
-1.000000000000000000e+00
4.684996394006247233e-01
-5.203405999892475320e-01
-4.987918606792215437e-01
-9.752919430788616895e-01
-5.630266969644796005e-01
7.269761719738636607e-01
-2.450246467267174280e-02
-7.573497077290186619e-01
-3.132311656479376261e-01
-1.150454803656019154e-01
-6.190291349013161692e-01
3.805014489152615531e-01
-1.000000000000000000e+00
5.017314538060906048e-02
8.735807920837640461e-02
-7.336406040866869649e-01
9.497609723702079565e-01
9.200958202945158648e-01
4.339755227077976008e-01
-9.584077156482591064e-01
2.151736720829110217e-02
-3.040264330434028217e-01
-6.385867891153335085e-01
-3.926279363017863844e-01
-9.447699733364981478e-01
-1.478517098692531395e-01
3.725610367242992993e-01
-5.377738888689472668e-02
-4.997846194236866824e-01
4.772440945761469155e-01
-4.260500966287228408e-02
6.218786066662247425e-01
-1.000000000000000000e+00
7.068821674227020457e-01
-3.547476117092804304e-01
-5.414328215530884725e-01
-1.203829808796529066e-01
7.711655001108522201e-02
4.665974034308884022e-01
7.682897398229619756e-02
6.246094078149855289e-01
-2.262068135679769498e-01
-4.941709192178026511e-01
-9.203880803433811542e-02
6.850128635404877375e-01
8.023092143325312176e-01
8.699325893066799376e-01
-3.141495622271224253e-01
1.273024400907552256e-01
-6.003434039816061274e-01
-8.196620560184693094e-01
-5.672025700508622759e-01
-3.533290795621235048e-01
1.852572595732329130e-01
-6.924004427091691172e-01
1.000000000000000000e+00
6.549299451419045015e-01
7.426606827425030755e-01
-6.400684981469524359e-01
1.371590814491983890e-01
3.139648870914581447e-01
4.913393230359356378e-01
1.444785296085659976e-02
-4.871946192314932089e-01
9.201230127794319813e-01
2.681575905586036646e-01
-7.717365453462089464e-01
3.240286356543536916e-02
8.670051798475271465e-02
9.382952415868091034e-01
-5.488299668433849199e-01
-1.983115593863390425e-01
-4.130485900655396780e-01
9.535242707407772800e-01
5.772886039230074040e-01
-2.906423060483944720e-01
-8.735302773821512767e-01
4.080739956291681292e-01
4.696570756184705875e-01
-6.830390655430722269e-03
-3.806072213383815961e-01
3.151343781888964468e-01
-4.144369889555634678e-01
-6.588889345457245028e-01
-5.572821176215317918e-01
-2.587183419918265836e-01
-2.468377922260482360e-01
4.271612357957693673e-01
-5.572862264264071275e-01
1.000000000000000000e+00
-1.000000000000000000e+00
4.019362043223537739e-01
-2.066070603649424187e-01
-1.000000000000000000e+00
7.406954020453495602e-01
-1.000000000000000000e+00
-3.393010854795399656e-01
-9.122311115596485331e-01
8.759897410378911786e-01
1.838576079509213479e-01
-1.277598566064424568e-01
5.915590210741184657e-02
3.513496500567471759e-01
7.020065690748628073e-01
-1.000000000000000000e+00
-4.491925309536453081e-01
9.463819080169146858e-01
-9.002105162638659452e-01
-9.176199703044420897e-01
8.738368934204787664e-01
-7.574597690132495176e-03
4.469736155920367993e-01
8.865334590898059641e-01
4.451946647908197052e-01
-4.899378088831372602e-01
-2.726173543158134094e-01
1.579661922998107926e-01
3.185650212709632001e-01
-8.428952697142622075e-01
8.105101546657028644e-01
1.902861359057551882e-01
2.808547155652943439e-03
1.000000000000000000e+00
-7.933297958275180584e-01
7.392107602802630018e-01
-5.621639611605706577e-01
-6.479967403207265164e-01
1.081638303768644171e-01
-6.414092484008644401e-01
-1.662036787173895580e-02
-8.969107169699559456e-01
-2.973072811313925978e-01
2.489996678737776692e-01
7.081421947683892437e-01
1.000000000000000000e+00
-3.294279651398032138e-01
-4.026583764085940875e-01
2.980121650795543309e-02
7.582589321476661537e-01
-9.517332936576796687e-01
-7.852964830446573785e-01
-3.308503511230429517e-01
7.196448905776724470e-01
4.953153625757290568e-01
-2.035146513239873001e-01
4.300980954716940308e-01
-6.441900997784221206e-01
6.128970671708804385e-01
9.274406433382306192e-01
-1.404720931910335147e-01
