-9.100416046418939864e-01
-5.306611147487062530e-01
5.876296509089722342e-01
6.498658468469559191e-01
-2.755238036166473559e-01
-1.748438928475900545e-01
6.447619284303881537e-01
-5.985822204345273567e-01
2.063227712834586614e-01
-6.022545094427043111e-01
-2.287586757990472397e-01
-8.554529432591205795e-01
4.560759496297068366e-02
-4.562915468935488938e-01
1.642643916416121064e-01
-9.914899652769892935e-01
-4.562862639348506111e-01
-3.858503051695040265e-01
-9.679103528990722349e-01
4.622826096051234623e-01
1.568088697359653894e-01
9.293894872247895345e-01
2.744886979488049272e-01
2.747442718268951894e-02
-9.093098802506476286e-01
7.814938854426823900e-01
-6.763178463855757938e-01
-8.046776701591078496e-01
-4.087856611766838011e-01
6.479838192612712156e-02
-2.421021349093594177e-01
4.233599074460361322e-01
4.355003917645866585e-02
-2.199751873667736835e-01
6.486661201718281200e-01
-8.919652683539075477e-01
-7.562404822315190733e-01
5.076364946095452968e-01
-2.231798929264919296e-01
-1.063247370523373314e-01
-6.878586519212843697e-01
2.586936410254760954e-01
-1.365838363073218487e-01
5.696554438133005771e-01
-7.289588497840944203e-01
-2.898893362149927988e-01
-9.049967470376522050e-01
4.183845068562482283e-01
7.518722213637450968e-01
-4.240780853408744333e-01
5.089271129165343632e-01
-3.080589387197044116e-01
-3.777944068099894359e-01
5.862652086093230741e-01
-6.066095421577637897e-02
1.910026384503035746e-03
2.147499311387691678e-01
-2.182013082822930605e-01
-8.105345231813251283e-01
3.900751937367559763e-01
2.505619113062305670e-01
6.312792751716728157e-01
-4.381787822413742428e-01
-1.800460169766470719e-01
6.982852093078503186e-01
2.211025836362785491e-01
-4.534265309376486752e-01
4.621815418877939785e-01
3.427131378140376716e-01
-4.316118969173259323e-01
-7.688131963348704412e-02
-7.861752209598236174e-01
-8.087334301288200411e-01
2.113184748851841821e-01
9.494894376326207253e-01
1.029781799629342215e-01
8.376688560838054798e-01
9.085918118025022583e-01
-2.821960559256443402e-01
1.000000000000000000e+00
-9.991046285435923879e-01
-6.289129716040133822e-01
-2.272573129938594561e-02
-5.342441827549289091e-01
-6.815864001695641772e-01
-6.465938485889326515e-01
-5.762923973359983243e-02
7.000505225472348769e-01
7.194956642357423771e-02
-6.571363934299204734e-01
-1.000000000000000000e+00
2.363230959922756336e-01
-3.822096549235586282e-01
-7.575902571391338602e-01
3.360260188040430918e-01
-9.881427266657092368e-01
-6.570629789889952388e-01
3.893998404079442865e-01
-8.071329419639885483e-01
-9.677214520250303487e-01
-5.500576096356885047e-01
3.010092531224362600e-01
-9.944029720555325191e-01
2.257515216954449760e-02
-9.531482018803034695e-01
7.629060361008223046e-01
8.116962775969494004e-01
5.906348386941033535e-02
-1.000000000000000000e+00
-8.350070430310726488e-01
-9.102353792063516691e-01
6.544609212684067423e-02
-5.582133117887152496e-01
1.319539611444504323e-01
9.287367322333759390e-01
-4.231144286547867672e-01
1.644012425698875846e-01
7.816426344268000426e-01
-1.672997194717441016e-01
-8.072112006522506877e-02
1.191470113391329549e-01
-7.471749758410944908e-02
1.051287644127905929e-02
3.596791596804284619e-01
5.917644206495100700e-01
-1.000000000000000000e+00
-5.580076169180185897e-01
3.540476142048127883e-01
-9.517226189290645122e-01
-5.539705127519291006e-01
-7.869078860104813389e-01
-2.931065469768373566e-01
6.654773987792330647e-01
-1.409621679486000034e-01
-4.802011339670214651e-01
4.996756955962796676e-01
5.335240170881536681e-01
-9.832825415335634256e-01
-5.062950535690311504e-01
8.833325159069022048e-01
-9.739026052914396825e-01
-6.642442860635132396e-02
-4.951654616674669440e-01
1.000000000000000000e+00
-6.588395696968070148e-01
-5.579895152295899496e-01
-1.000000000000000000e+00
-8.637746537118771162e-01
-4.937902739641287786e-01
3.922667234234070710e-01
9.469771266233805163e-01
-1.949715503107171399e-01
-1.843535293027737110e-01
3.612989026940375270e-01
6.833762878279154851e-01
-4.818380557632817585e-01
2.086686631006675618e-01
-1.000000000000000000e+00
7.306023127803238371e-01
-3.739279387121950404e-01
3.175647412994306307e-01
-7.030114936996392228e-01
-3.223466755393101790e-01
-5.964165110129653058e-02
-4.767024121232796841e-01
8.617424108189268850e-01
7.610362969771362618e-01
-6.201958106287556172e-01
5.456143584099565347e-01
2.548076152178107012e-01
-9.969630283260523251e-01
-1.973669828163909234e-01
1.726308569425027972e-01
-9.597453390493376757e-01
3.867012031781400516e-01
9.164313943332906831e-01
-7.888395309317644544e-02
-3.976713461782067638e-01
-6.852005542602660482e-01
-9.276296582781956568e-01
5.423764023153708480e-02
-1.000000000000000000e+00
7.448331401147230135e-01
-3.775367836766054253e-01
-2.506571135868479461e-02
-2.087822250133948010e-01
-3.505164929539433816e-01
5.250014863886920402e-01
8.272903071201291592e-02
-5.545986682954285873e-01
-2.758128837896731689e-01
8.693373981782979154e-01
6.229284603034597190e-01
1.461399368192330683e-01
-3.039484777099672463e-01
6.923951680488061866e-01
-8.610108804484924994e-01
-1.455576590516832192e-01
-5.513589894461508045e-01
-7.162640712237438034e-01
2.430506974221649241e-01
2.248414152633170515e-01
-9.571516520700603659e-01
6.348749815927647866e-01
1.835270597242261437e-01
3.657262608691516648e-01
-2.591944256146608283e-02
-4.300143143956550729e-01
-7.546065710864144904e-01
-8.047285209486788604e-01
5.974812017896650312e-02
2.091091652407084667e-01
1.000000000000000000e+00
6.304017794832843524e-01
4.758280451157088226e-02
9.643936300196843669e-01
8.393559292409857875e-01
-8.635021928069321895e-01
-1.757301122749121980e-02
3.856611330799678550e-01
8.278890917702702579e-02
-6.177617963637584975e-01
-4.172296135197277600e-01
3.786105806729477830e-01
6.894948980658205384e-01
-8.539489979128983554e-01
6.868330003223803715e-01
-5.572661617401317713e-01
-3.551494328048419025e-01
1.182950475039437899e-01
-3.304829440712113153e-01
-2.333976491001650277e-01
-1.516478818664813710e-01
-9.183636168569675462e-01
1.096817294118719588e-01
3.750204473452375953e-02
5.286423155802506546e-01
-7.215873400566955587e-01
4.578727302923121245e-01
1.000000000000000000e+00
-9.975042784827480302e-01
-8.851807390881942794e-01
4.265250840611158334e-01
-8.351773533790545212e-01
6.794020861757946728e-01
-3.056859744618716790e-01
9.540710736189639274e-01
5.616744424867009533e-01
-9.783508342214931874e-02
7.260881305872409763e-01
-6.954295506906177371e-01
-4.599034060332957141e-01
7.214534270708636843e-01
8.030236564145748490e-01
-1.096338545424224709e-01
-5.278989227522490335e-01
-1.693944896031642777e-01
5.375432007996265860e-01
-7.125795897175005167e-02
9.673250263000279237e-01
-5.750091530893013392e-01
-1.124508208461670739e-01
4.154671552689305492e-02
-1.198414651669315878e-01
3.254501237087646937e-01
